0.8786800359147424,0.3544120480283972,-0.11687998333542127,-0.6589774419769205,0.7846573681820732,0.8039312573644242,-0.0052294816285618495,0.19393180136979682,0.13887640353750474,-0.3793630127404761,-0.7225394324944072,-0.8244706712541292,-0.9331943455625067,-0.5272455210079829,0.8915455941967179,-0.7072824533900621,0.6535017805594512,-0.5953501344745167,-0.7940474522987842,-0.3431643495405361,0.7878519727216553,-0.8815544761914047,0.6779990767205417,-0.42249920174773536,0.6254709052312275,-0.030785382818019125,0.4217220988318131,0.5329014242945962,-0.2051753705727819,0.660143795974903,0.1918271373269882,0.7695325843163401,-0.9331427372049377,-0.8271180784135153,-0.8626768873942021,-0.8855577811483972,0.36659985899800884,-0.9203807806192998,-0.13163863636649875,0.4756357239085409,-0.2740570954178967,0.05727158785983266,-0.868250765200353,-0.5386366390219026,-0.9400418265480659,-0.8395292402164758,0.7050633168442231,0.5665942201623058,-0.505141365991782,-0.7911092685983541,-0.003760612913898287,-0.5449421440983448,0.38388701430636707,-0.49423223754430134,-0.7250305140747073,0.007812967052054809,0.11812818322536645,0.028300726098041462,-0.535809828400013,0.014381115068056838,-0.6275564122918567,-0.7830545312232062,0.9843987405781249,0.6500607074531397,0.52242741883418,-0.46055470223805517,0.2704868318092719,-0.7868847311300247,0.6264896550559895,0.1167687648683533,0.270235375913902,0.9881084124103912,-0.4121275164630964,-0.128047689389174,0.48556603023267764,0.5567347462156351,-0.10538943450673344,-0.10082475741396646,0.9320994484739424,-0.6049242641344372,-0.3188515365206881,0.04922144840938225,0.7695220718679698,-0.8237135505347051,0.7635317479714898,0.08881071699513354,0.29471742199337325,0.840297759509717,-0.22920851021704802,0.21511086362263354,0.49157020640127125,0.1971966388187567,-0.4716553636618763,-0.8069301845357313,-0.604194357883364,-0.40147491565779125,-0.5550634058267836,0.9320346832825734,-0.8398217344674932,0.04081694571091732,
-0.18714551481011132,-0.07054621587463883,-0.10522119090393489,0.9582690514686387,-0.3481562049290641,0.6832843108033821,0.10918010457453597,-0.08347772995149838,-0.9896369218747967,-0.08894170925252243,0.8975963402110945,-0.5628946873678018,0.4835154046052399,-0.7876142746272614,-0.11481692676343092,-0.7378270936608189,-0.8848017354036424,-0.32699652591918515,-0.6069411643571778,-0.48825233287876446,0.8227160345375761,0.8323055542414586,-0.7184184606632171,-0.609246659378164,-0.9846967773130892,0.4226190932241687,0.4958670776054861,-0.6292949273769208,-0.8262909782884609,0.3373182238471264,0.4644896291278875,0.10100052518516245,-0.1838024222699961,0.39619668434547894,0.1917566258357699,0.6973340297890054,-0.5029792936850879,0.6503467415765323,-0.8640945685020198,0.5098335812450598,-0.7333766215987856,-0.7948778405459271,-0.2199803505200495,-0.00890088603005812,0.36854585143490004,-0.16141054119394083,-0.8205809004264628,-0.13560186110064398,-0.1438120441064923,0.054200143606593754,-0.29127265839813443,-0.5651462504203377,0.28330627794288654,-0.3697542008414867,-0.26622276890266994,0.5915369814082383,-0.34468373452343615,0.21498382797193938,0.9979646606598465,-0.18404553751893893,0.4241752730327961,0.06515284067954252,-0.8603834279442713,0.3425004564386931,-0.5321743251788085,0.6369215904337171,0.9463907302744279,0.5090200651023336,0.7158802487807463,-0.587854279029028,0.7046787245735993,0.2907083362224816,0.3664348000133033,0.0791340270450891,0.316436388315241,0.02814938220767904,-0.5154035078278651,0.9859538284900127,-0.2671808729313223,-0.5596241408909477,0.18151984537648747,-0.35436689204949023,-0.30654750024903166,-0.8435909236625205,-0.45655594916983144,0.9964461513830223,-0.23787769939198777,-0.796183247949988,0.013430420556677536,0.10679616231607558,-0.7858796694243348,-0.8395953108957459,0.02420025316527452,0.06303734473142097,0.4574361973246812,-0.9947644954394406,0.33867711379622323,0.889907374458466,0.3594378803773919,0.0977472471208869,
-0.22445897523350844,-0.47293239554362065,0.10263780875015316,0.16882117215385573,0.7803041806588504,0.12157921259213333,-0.9924069314688893,0.7252276099742669,0.6481225311787977,0.19496860911445757,0.13794282521701007,-0.1510443496540057,0.11275874796430885,-0.39513395974895493,-0.557962104900793,0.015511579573097345,-0.51318343779278,-0.35497193351215106,-0.31242815308589034,-0.7396514070805822,-0.4284300631023237,-0.8861172360616874,-0.4899252752586716,0.7901680227888166,0.15041138160677514,0.7305656179397257,0.5230851479873644,0.9659118112343086,-0.9618498753840177,0.8887408415658138,-0.3727319750446376,0.4768422369568448,-0.6209089748345911,0.4123321158976989,-0.5923004477493423,0.480184955746779,0.17003030290448584,-0.28638583748956314,0.8229938543406536,0.49838757011632095,0.8300056502074995,0.5529450423370517,-0.7331015466754032,-0.05387401292436356,-0.953156831184417,0.4607471685525373,-0.4775606555794847,0.3017674808520565,0.10124480193799901,0.80617275417901,-0.8693509406917344,0.1430781334684239,-0.5976349435235064,-0.5167817817384464,-0.7396349779418974,0.5345406472855248,0.06452672119542036,0.2338796827257814,-0.707462179704131,-0.41627397755535744,0.012930687725403844,0.7392698935421209,0.02194229050850427,0.37674141438673403,0.32691611037671087,0.7834453071580738,0.6311381039422739,-0.04214610953908382,0.31253186566338265,0.031019653236978417,0.40597863301906156,0.5359685616828376,-0.8581176950895191,0.2584691931295997,-0.4610789375118254,-0.31928241019947357,0.8049136864503919,-0.759637720819728,0.3058428719219304,-0.08650590060995866,0.5900113250240793,0.9155744247459594,0.40402350312914836,-0.1961560925203154,-0.6570200552243277,0.9448778325219318,0.303403360055279,0.4492056859922684,0.3496831144310457,0.3201227789448491,0.0901844054939056,-0.9539313975514121,0.8458209059994759,0.2965565806178867,0.47129121393972206,-0.8468060270382067,-0.12197227619349871,-0.4063471172197737,-0.6398370704594787,-0.7973733986261822,
0.5236756121347448,-0.45384602844313404,-0.22119884737800244,0.8317983951394976,-0.6775282394218354,0.6858548665401474,0.6879504964091097,0.6901062510184481,-0.8188589845028051,-0.9040120638175868,-0.2032570990213256,-0.4840768553963688,-0.0168113606168645,0.8038934833578077,0.40508917459211635,0.48508036715184266,-0.33105904344140646,-0.5360089566620998,0.8965547230140984,-0.9005635855889387,-0.35323570255515246,0.6318926569025389,-0.3735909715334995,-0.785773411046877,0.05456708611659811,-0.9581698392778031,-0.3610073451070279,0.19546496296427618,0.6113913578773589,-0.5266068255094494,0.9004970340780063,0.6537493169042854,-0.41789556460844857,-0.9700940764336352,0.5477072863638406,0.7183966830567714,0.7239041651306102,0.9495969193358451,0.030209757285802885,-0.604083794927053,-0.008446042318973612,-0.5679554705914214,-0.03697954668017989,0.19940389690234417,0.24896721364781937,-0.6137904172014872,-0.9914574071272131,0.9405212920656032,-0.7320354187302613,0.49269438469506643,0.17121519517012462,0.34329950985795543,-0.10927106798735609,-0.4783054202014192,0.5151679832472409,0.9690870709991217,-0.6093123514314149,0.459440494013297,0.5046502817862792,0.834538490825945,-0.21274553875562874,0.6697503913746874,0.9189550130097963,-0.9403810910252945,0.15306558082584987,-0.9463519104949156,0.6080128574116741,-0.09982224918158322,-0.2019511320218712,0.9688243108754926,-0.7682171274828054,0.59972317762889,-0.37713228210985705,0.532049449248287,-0.43397879334707756,-0.36239384248731854,-0.09501644798014164,-0.14852528654502972,-0.041039070556494694,-0.8440974798530274,0.3137858131180451,0.7220846719978649,-0.912109927645415,0.6148578913910208,0.04693891323961963,-0.6336056067741804,0.2915677375575205,0.056840197458721375,0.6383015815630557,0.913810789208654,-0.5561287095650489,0.7513209557994687,-0.7915251995034094,-0.5140924205195438,0.5860212001763421,0.4484861194378995,-0.2877612929669824,-0.00881015237983096,-0.6508179030213741,-0.013345968382286966,
0.08284229929764253,-0.9682468683696592,-0.42380678410831485,-0.4212426170060384,0.08131198927467231,0.6855702390176608,-0.5093664402607685,0.7457235633806205,0.12964857459796053,0.35196633055800985,0.2633802044650426,-0.43033459866318413,-0.5600139482263147,0.3341721637694859,-0.10872804871602759,0.70737410363071,0.3474873866724266,0.38167181073604706,0.9294429745986876,-0.5653178368190541,0.9129563063299535,-0.973608927378663,-0.19165515461888738,0.8848439662548544,-0.4181517369350598,-0.7794000236984429,0.2184277934146588,-0.40084141466170387,-0.030435956446429158,0.5207304948880334,-0.6400944861786602,0.5256389026601525,0.6886163037944608,-0.13986009262362464,-0.26801843199426445,0.6816069461232535,0.5414590159935189,-0.1848224240172207,0.5753669135357438,0.8386764922921766,-0.6265246802971147,-0.807259391916741,0.0838733714195814,0.7936597222691923,-0.5861785722520607,-0.24616647781386836,0.06531882630022401,0.056513290798289706,-0.9724731973358136,0.9364733492285475,0.8589349999226439,0.116518560215781,0.4604559373088384,-0.4473889015971484,0.005920111441305664,0.8404675316473615,-0.6205627661751703,-0.3924321339276249,-0.5782670421822365,0.011704139844586958,0.7930704964609103,0.6268123453843581,0.633178188420543,-0.4635499347414873,-0.7155739353178769,-0.8262654169883639,0.020284094726080948,0.42392061681869686,-0.6049482471811811,-0.3966014123408461,-0.05757042764235876,-0.7106845179159753,0.47040748811812083,0.5210854020793656,-0.8698716504103607,-0.16615303377418345,-0.6899494012181548,0.9007651088873954,0.7883324021777405,-0.4764536131788908,-0.4384027237867014,0.3674656890217354,-0.5159303210841362,0.5186674086632825,0.9556893411705039,-0.24116640593789818,0.08068417349538048,0.7980833513429635,0.19989865132380324,0.7550100087574889,-0.26710100395065983,0.3781536437958033,0.6327037912019688,-0.8977258360697877,-0.7286222234110316,0.5431125151459995,-0.4156215178523426,0.7547336926380495,-0.8175891900603174,-0.9158886741558954,
0.7998320619932977,0.11966984773624167,-0.17219281106688467,-0.3133759983463906,0.24914730932772788,0.5159734300630567,-0.44797369759384775,0.8110032825178777,-0.8152366714541877,0.9414360796209671,-0.1119641816654644,0.6785532532838054,0.39995438800870464,0.29348856453821703,0.20033547114096395,0.30556213536862065,0.30145832249846327,0.2993072750163541,0.7930405001677716,-0.0796823361404464,0.6298120714597688,-0.4149635493570094,-0.23712953349566113,-0.4467956388602219,-0.5558454367162049,-0.44979625707859383,0.6913427887507608,0.10756169905390167,-0.666039917569736,0.012233537093843116,-0.3525766396991523,0.7990590034327316,-0.27163129107804895,0.9472905582664715,0.9113405314553558,0.49392194467557315,-0.3555162569696908,0.07751548766710159,-0.6677802257644754,0.18142285074862885,-0.7507917020705674,0.5410413969309518,-0.7033476956340368,-0.4163743241815243,-0.7951023812254989,0.4300080796729451,-0.08773822984792568,0.7354549176955734,-0.07269433209059506,0.5931200752090375,-0.8002130916801287,-0.7392654196041097,0.6050079174237426,0.7731218788201879,0.8391522791178341,0.02492301399664054,0.112686545817686,0.8858915594920311,-0.6705495703633737,-0.13715338086481643,0.7963651429668328,0.04668321992492808,-0.7002866759315938,0.1598138224779304,-0.4831144260694362,0.8103756200955616,0.14680385413156882,0.20706844531535018,0.3086205986965942,0.016413434320273534,0.17871050679171607,0.4576206564801111,-0.456378778194904,0.6154551781223145,-0.9940171106452946,-0.9239292446243774,-0.4129017155743464,0.9035696133794411,-0.9490031068670759,-0.49388020366797836,0.5883433466358399,0.7011522063641906,0.7341935945976314,-0.8279608424097775,0.2718954986745947,0.18755865529434312,-0.8516121715732137,-0.1145511548271072,0.3769646453046087,0.3387835460589086,0.8466951010806552,-0.9536669061497312,-0.2611759365933761,0.21433781001615193,-0.25341972102510635,-0.6927006700349019,-0.08591033714144847,-0.2991911998496135,-0.9080171122476162,-0.9873347919671787,
-0.27749527781775285,0.743413424796475,-0.08257196214071061,0.42903604921083804,0.11105318185844437,-0.41681648576589736,-0.4775153151245315,-0.44838628910076817,0.34192765748822596,-0.933748760653921,0.0918861971947953,0.10055558692976829,0.6640805695477181,-0.29697071570386546,-0.21391855734935428,-0.7857195222705067,-0.6512088434263354,0.8289100075556022,0.3789371042800602,-0.6983031628623222,-0.747116975128796,0.9544343451537785,0.8337662268143113,-0.4670933313244623,0.9189311778323996,-0.8082884883268677,-0.9141900032443988,-0.47198450355276456,-0.37000048746742387,-0.494804064020256,0.7387531655373871,0.9462594574063581,0.8071540109773232,0.45875890979586154,-0.6151925568003105,-0.1172646160679307,-0.32880142056078565,-0.882682107490302,0.8223489966363255,0.24760122589423328,-0.814214784820521,0.8101165272741784,0.5720503819389933,-0.3673107835725491,0.95725203443856,0.5740755222743701,0.781899980173943,0.5630547662114487,0.9872463876676345,-0.730537041620396,0.8634548398013473,-0.5139391807596603,-0.04260665603201774,-0.40353948789857874,0.016126531745837447,-0.6318241081097282,0.07097302146697726,0.5400306931430581,-0.8267475634880488,-0.6502580184126545,-0.6152270519603529,-0.8681821502775178,0.8431578795940791,0.5505472530353168,0.034985615720238394,-0.15835605800022945,-0.17963237765009166,0.8241156536113012,0.7942233342812399,0.397488119678167,-0.19342058623168512,-0.9737954657763581,0.9924267161246156,0.3816679476531273,0.6079633524350603,-0.8069212311991885,-0.007354089458733171,-0.43773321717255587,-0.23519435857641247,0.9177086058642929,0.133375974421986,0.5926817399158284,-0.7785313629996529,0.16711649297159625,-0.6676672030981561,-0.5515065728748605,-0.04090993953066069,0.8016754190002462,0.3922565452257132,0.7696871312023299,-0.6095998968466803,-0.8627589206741364,-0.5424644968981034,0.13758368675871702,-0.24451389754472097,0.033576513869889135,0.041144059755353624,-0.7603338680516363,0.7592894428601149,-0.8023927947456546,
-0.4254070881408991,0.8618156103140613,0.2560701141818793,0.6576224835539557,0.5292922249194627,0.6962998369512485,0.91303044727744,0.694616597868192,-0.18406805029619955,0.06518369660204204,0.4747397987642792,-0.0904579306900426,0.3891862128120005,-0.16733929141295611,0.5019571296368492,-0.4396753565107734,-0.2317477219715327,-0.9838673380623468,-0.7270995583569706,0.8200690948095795,-0.4705629305013299,-0.0953090050261225,0.9119657874406732,0.18796099832421764,-0.2647917183421895,0.8549839041837657,0.750351105474079,0.9269500797938555,0.7348292767341713,0.3582798497874271,0.4249937429702575,-0.8926230001402093,-0.19509937358374607,-0.5411337047823921,-0.713316329265598,-0.3967153639465424,-0.3061656174376888,0.15275157887350477,-0.6848332663026344,0.21823253695357558,0.2924898136317027,-0.9930352113273408,0.9285069804814676,-0.9899883796406284,-0.6260971506588815,-0.08642246433976153,0.8259280045237869,0.8387343287920181,-0.37175553501168546,-0.3711010336476126,0.31780889159715064,0.18035313235013217,-0.9351534267910917,0.5471241352182834,-0.5265388222518685,0.32773888163806375,0.2613363931381647,-0.9809565246510867,0.8567681482275744,0.24402898927417516,0.9106248642833696,0.4502493152564633,0.6217196397604681,-0.461968120175954,-0.35030437638180234,0.39960392467567085,0.30432937148780526,-0.7009453850403236,-0.7501535242799195,-0.05243935594182947,-0.2256251071071831,-0.14140315222068933,-0.09376297884899909,-0.2847402386865332,0.4998528576254706,-0.06106644069988243,0.5852992937307822,0.08914634566348423,0.5289962090948026,-0.896314162074286,0.17177199880018024,-0.5578126482476953,0.4091523446017695,0.9430590906452272,0.5028216028911676,-0.5584069765523823,0.6387745554031186,0.006504042457363024,0.28491685875073935,0.8942749230388292,0.18823287141762401,-0.8618644739574204,0.359826196111807,-0.9948980962563796,0.1271024871241786,-0.4246785138309068,0.8193110196678308,-0.5906568294429644,0.46004142820744076,-0.06156713744901832,
-0.9362095163572579,-0.11048409455501207,-0.09967658916771982,0.06982356423960323,-0.9415429480666901,-0.7018175734071124,-0.5004575232752504,-0.427313090609462,-0.23897522054378917,0.8820708026487396,-0.1960378931822484,0.8555139546627646,0.9784955223937128,-0.06077963917674434,-0.47756832000788285,0.5054573069587893,-0.24396833394171114,-0.4603179140799558,-0.43225084687181203,0.8939809390761337,-0.19077326616812984,0.9016315985181409,-0.22720063060335693,0.06075627322774402,0.4817684223588148,0.9385808637447552,0.5847520498080767,0.12684145144172554,0.24369207767371304,0.47970267625363205,0.605056924090658,0.7557601804291396,0.841125311342257,0.7141105140590664,0.9699247765090899,0.5111735157990442,-0.13337239331687756,0.5212637954303663,-0.7445615596548778,-0.6475833911723479,-0.2600674980695634,-0.4765027662924455,0.8433894016402068,-0.035749039588240716,-0.12789806479122934,0.9330010467146828,0.49838974812825443,0.13475965104164822,0.13180715518105535,0.5644066278524944,-0.716238717485153,0.9753924255336892,-0.3593487027467748,-0.2545393299946346,-0.11684193847227897,0.41974532394965425,-0.6048453437929935,0.28209890604042376,0.8968306849026397,0.14273657026104103,0.24622433186426096,-0.8794417369160534,-0.25410602243779024,0.8094204427874241,-0.6373650591848725,0.8979952590825209,0.4449135386347389,-0.6072427608675701,0.46324872576407183,0.18440544232462086,0.6925787672740096,-0.807763260032029,-0.17659241467501396,-0.1075320910510329,0.48218357652502286,0.14033000220530711,-0.6558675533708964,0.06826628747645413,-0.2519104769853935,0.0013229126771929778,-0.18153245266048024,0.0746660929094678,-0.5587017098659706,0.1471628010901962,-0.06248772191851515,-0.9595437323909664,0.8667142862510568,0.7375274099575844,-0.4506157724496864,0.37219099566074987,0.11663141157396106,-0.6635960524858047,-0.7824383403521191,0.11199599513540548,-5.700566774382576E-4,0.2650441217920121,0.22075641090159337,-0.02656848185582228,0.9894245485967026,-0.6787613577267799,
-0.20532935294512855,-0.0011675993046846855,-0.5867445841936452,-0.1125664724196842,-0.3633045259263443,0.955373881893145,-0.6598301970053193,-0.09471215771027297,-0.522189422738031,0.8234396311091172,0.45799229217240156,0.7118518688520616,-0.1283505078843814,-0.9703028784738432,-0.4064631510773058,0.31262104596675044,-0.7411042977415889,0.438612635714394,0.4756660383336264,-0.690698962281344,-0.1641194433175921,0.5399676579403554,0.8411560478508007,-0.5948039950088759,0.7894543909260039,-0.2437346292333724,0.04797956124213654,0.17871104555357764,0.05590795360702372,0.3427444832807631,-0.012429206365669021,-0.3544624562756731,0.9199223269069285,-0.03595360649913748,-0.7229079901815798,0.022668374351540788,-0.5097702642195796,-0.2945916858472326,-0.535328963059855,0.062468330421057594,-0.6281294150991568,-0.9874152856911389,0.29503561554411006,-0.6573976714249123,0.7006349963433376,-0.14647326410855954,0.9599210484047476,-0.02229623348719101,0.11348037258026689,-0.7438227071793015,-0.30291777979109,-0.6387584872523098,0.1994195420751872,-0.6994319761970331,-0.8963066153354593,-0.24887635551854403,-0.49142245593400813,0.6297322831416774,-0.9056272151194058,0.7801537297935928,-0.7071825939052128,-0.40722375466294114,-0.43897807708126324,-0.6974668869108425,0.8095393427037672,0.24477901170215843,0.4811222577455785,-0.6198186491223305,-0.7590394727709857,0.6020196287510513,0.4730863304965589,-0.33227468263247983,-0.9356146981077351,-0.21264187758106923,-0.38828832072134367,-0.0274156658415603,-0.9453204730975118,0.9994253237652038,0.6937404625602239,-0.6533415243502527,-0.9916343889302413,0.6006040796197778,-0.9170192184420889,0.7087041502015712,0.7494575085730064,0.04261297190357327,0.7663971587234628,-0.2984404922710244,-0.9896411094893107,0.8348324054474148,-0.6829665480782827,0.25596056794959465,-0.6231500851260308,-0.6906610545787157,-0.9134179639747964,0.1627669913276879,0.6443919816849681,-0.4520553084393557,0.13986793197584801,0.8479938884429086,
-0.34631758780799893,-0.4896355377258974,0.19546879374165282,0.5001258738857883,-0.043405632616550394,-0.8610372067265715,0.15114515032772902,0.7167652507400524,-0.4906599088392567,0.01436004697874993,0.6497083443543372,-0.08225332785125761,0.997899724054294,-0.002493696067834117,-0.41959316346156506,-0.08557256668045143,-0.628540598543935,-0.7823416919765158,0.41286436066315346,-0.7700591137912036,0.6928069970362327,-0.24797583367109155,0.8250567997683058,0.03277876051013484,0.5103363328910817,0.3916677847994472,0.21376798549565557,0.876146269451509,0.6145134564299775,-4.061217991189192E-4,-0.634582965492055,0.8281121647026588,0.2623626933299039,0.14076098210171617,-0.1828961977366903,0.032653397938546824,-0.26326762238648027,-0.09989913775243275,0.252171604736799,-0.740727077138718,0.4528034142732211,-0.8965523386606549,0.6515396787055006,0.5789469273592358,0.7325079680553401,0.5176100123030933,-0.13848918173273317,0.9467360601048287,-0.16177313125490977,-0.9703522865026093,0.7407132824265881,0.17647302578530621,0.8903395436813433,0.2917417327754337,-0.8867118789240975,0.5605174604165644,-0.11109870375319142,0.866874429670466,0.38238750803777255,-0.7823531975050038,-0.782071961614472,0.5218662860306726,0.8475018806529484,0.14473022859620177,-0.26853051667998407,0.9881417938562433,-0.4789129666362202,0.9029107591649541,-0.19614298614700965,0.2469270512003099,0.554415426944914,0.8865987788904994,0.5722140643280031,-0.8055922685844636,0.25952933231089315,0.20365803899262147,0.007520612535332649,0.40370673260725987,0.15362655134596737,0.33774408686371604,0.4212264701658859,0.6243661183235201,0.45416163169944057,-0.03116782940020779,0.5476112020923631,-0.3536515227057946,-0.98259955673954,-0.40444883566602274,0.43779136796797724,0.20439976774078006,0.8401171843607533,0.9330162031115159,-0.9405208309586794,0.7099438685885462,0.9335773093958328,-0.5475671057086091,0.717299753633468,0.771507333139198,0.6309027481330531,0.8838233017900741,
-0.8083228818108079,0.7010014390188173,0.20336795495365312,-0.9791990571027391,-0.15999747466240954,0.5020159123776928,-0.9618697294727472,0.7464021923565156,-0.18799881109090522,-0.8023928520238204,0.5693493318372467,0.8415579897883654,-0.9980823746564362,-0.22110733550814254,0.6566046239936512,-0.1571313259867093,-0.606658061448613,0.5420897968836018,-0.8310270096830297,0.98392251532629,0.04820298061385153,0.13046735770295492,-0.839919295515118,-0.9155230977751436,-0.8503425406530039,-0.7909959359372865,0.20889875219597398,-0.8556007911759527,-0.7706925198301553,0.37337875807896226,0.2530017531472659,-0.6456578171895659,0.9923808065645972,-0.3687568961191716,-0.44453421804172666,0.25270741358170734,-0.9997866627144165,-0.4074431481410614,-0.6764684865186505,0.8385280098303154,0.8775745681919067,0.36709373509482535,-0.06338580649414771,-0.40751993818433796,0.6830810164821888,-0.908946204027762,-0.2568067688068134,-0.4366898531976604,0.6141451754433618,0.9910464460964483,0.9505691752515177,-0.05545446978558832,-0.6863891964344779,-0.05746368007925651,0.2584271106993521,-0.10357048484553766,-0.2965709159901222,0.5911728098420346,0.5766003092382315,-0.23939469866083418,0.49143200495863715,-0.7207487930430567,0.41937960803626906,0.2701472705953274,-0.7195362915249846,-0.7441172999159882,-0.6168313816053974,-0.12488092815939233,-0.4451666967714132,0.9482774568945336,-0.5087635725434185,-0.11608624319704774,0.72725513550512,0.4328740954022665,-0.8712260569085388,0.7632110718786245,-0.09985350814447291,0.6688765945715982,0.7934121693294796,0.6444645830029896,0.028355691952863804,0.5430874305190454,-0.04918534043144396,0.8524088045826748,-0.23390421005967266,0.3237545623902742,-0.08809142886648513,-0.8988442318435843,-0.56093638300083,0.732477653924529,0.837772952343903,0.8960275676082485,-0.6965742801421386,0.5170468546680504,-0.26984524890519235,-0.3656495318287898,0.5365569160951456,0.14441599600021804,0.5800376680759916,-0.08398700619279187,
0.2515378992684376,-0.9680119009224905,-0.2788516054404906,0.6522277711337692,-0.7758952234433834,0.5955713573910953,0.8946497078415587,0.7230348587174219,-0.9674792717529291,-0.6799539167853084,-0.5385981227628466,0.0694413920437166,-0.24014340598772588,-0.9622603513737342,-0.08052442426370601,-0.47822136381088076,0.6123171025568264,-0.3521854303414209,0.775474093090425,0.7845181638462706,-0.6231118464092619,0.6898010371491546,0.7715434371101346,0.6089603317771503,0.9021819920223954,0.10165151380685977,-0.5038536084929784,-0.5332798416265339,-0.4287443886293022,0.21956637779065527,0.36055021615680233,-0.3282549608806587,0.06292753754567999,0.8505898969103424,0.2776100415627274,0.3868447400582364,0.6189246671385853,0.8624911040045365,0.1887922457945964,-0.30390392033408536,-0.48508211607278373,0.24499528831472023,0.3804846251670787,0.5182651559024785,0.411918750834147,-0.14356016039504305,-0.7807786932528786,-0.009632666292522445,-0.028379448400373486,0.8409189811202521,0.8990352520015049,0.7328093693441982,-0.8605609335515284,-0.9222023968283535,-0.28485079824562615,-0.6727389888364439,0.3230843779392899,0.9489645682477463,0.3818504784195723,0.2899098934485919,-0.051054541371674735,0.25918991495922783,0.9754327906332677,0.7402496534910402,-0.3129594578414668,-0.9756443731859898,0.2521226510711712,0.3773912441882101,0.104090751506789,0.6778958337935624,-0.9968255727995831,-0.08108489833002261,-0.5547646530088886,-0.7918919777545197,0.02984587712727635,-0.9362644242541158,-0.25900727534663986,-0.31620678531911783,-0.2060389661652844,-0.20229031701189465,0.6087905681918285,0.6026319396396741,0.7493023438903261,0.2794159280426056,-0.25517609944225383,0.9495011312871452,-0.35597867739301403,0.26462572994598443,0.26473263351316284,-0.6449703225193087,-0.45396827806297385,0.04500296579481628,0.911596953873088,-0.10167514630615697,0.9444192235356821,0.5462552468954353,-0.4804647462788634,-0.6640529763757343,0.8554045332291009,0.08096519317315717,
0.8634475756395255,0.03516455264046684,-0.3180422404017942,0.2962262660057892,-0.28724828904259375,-0.7362015330582993,0.1562835011301822,0.4570189886970695,-0.16940583842927162,0.7114553243597616,0.6024194733365857,-0.2252256532169424,0.17401672277304034,-0.6886215899417301,0.7177222625985588,0.6286469034662139,0.9148417341245879,-0.8654707067065183,0.7518924879197076,0.3137863125664618,-0.5671791117635775,-0.05977289043755482,0.28827359111677126,-0.3428747789998132,0.8027742511822613,0.14217941889128605,0.6533217880669624,0.41125193765564794,0.1469058155762058,0.8216875421468708,-0.8377497617212997,-0.3188552128203578,-0.4076267450991814,-0.8686038719454567,0.7994310862326562,-0.4199606531980284,0.572489487955445,-0.0910104778591742,-0.35076364641238095,0.7408879487298273,0.7650862368246434,-0.5057309918795077,-0.400652495229998,0.33374034235261774,-0.06269797166704281,-0.7036905169827774,-0.8575109676026532,-0.24135971741079168,0.8682061671697929,0.2551825281217721,-0.4709010464830058,-0.5283545805962546,-0.5608688784669225,-0.9969408944898598,0.18758026308908746,0.91604866651237,0.9911409517514405,0.31250856488624906,0.69432549181489,0.040639638084431946,-0.668190875495986,0.3106281750760597,0.40214495644897336,-0.7522260166900631,0.6001540012458448,0.47540503177510596,-0.5852553095451606,-0.016955007504272503,0.801982895644573,0.7981287283028298,0.9424885945382739,-0.42938387738686745,0.7959713021362061,0.06629900301174893,0.15050165561563192,0.2016285544649386,0.02523404226222216,-0.32064348170695633,0.8472025644816127,-0.3042506863349814,0.6159854491342382,0.8635103767409961,-0.6480203320281782,0.7425479722243142,0.11603124635721723,0.5734568303214662,-0.25305003931196474,-0.9961947402170357,0.3020986695303942,-0.3635617103927911,0.49162796965845773,0.5162277113637089,-0.501107318187045,-0.49849746989207266,0.78905316300392,0.24718472864340266,0.31369948892244026,-0.5043792783476837,-0.033870534479122895,-0.6102861201933871,
-0.7090986573001765,-0.10411986195478841,0.8845032751996645,0.8911059875066422,-0.9465307040467067,-0.17935344983675497,0.038452767599860875,-0.1552854836210378,-0.8426430666479111,-0.4151222301990631,0.12504506624416423,0.41345291463799544,0.7676491128126101,0.5354381225122322,-0.4581526364657658,0.4999681438238066,-0.5826840090010659,0.7579559716492753,-0.46445225054297373,-0.5741308040546877,-0.09642406651657992,-0.741204768303146,-0.4687051688918731,-0.003335335321737442,-0.27826401421038177,0.524546714816347,0.5517913313138121,-0.2386107252567946,0.34467593624186227,-0.27722819597100873,-0.42565256750293123,-0.06524634417557254,-0.873153455984018,0.23155987064314743,0.17605256218558696,0.15472973356874714,0.644853631682205,-0.32821202133932115,0.8816771743793385,-0.9839368182316316,0.8824049145331491,0.16480130227339415,0.25586987468554584,0.15028076188324896,0.8255976770804727,-0.8504418184028395,0.9706674321284393,-0.484659462760334,-0.2447698423000592,0.7671145790503011,-0.16871051623788622,-0.48685071295788707,0.8060213127693093,0.5566490482294068,-0.9423582123450751,-0.4292491696428075,0.2083278803123948,0.006058192206532365,-0.004094501530354981,0.9010663483592182,-0.9638503191013545,0.36148009968943884,-0.12595657465197357,-0.6983537084277305,0.25591837675985535,-0.9760675457410511,-0.7829936112596207,0.05497142307592033,0.40376688579115555,0.8475788650107381,0.10187706996842653,-0.738581375964716,0.3146807318824866,0.7029664368927685,-0.4398592977384927,0.2660856969500563,0.9851351057868117,0.7799037560699466,0.12372626098887886,0.23324659267411724,0.8715249077763559,0.27847940267089866,0.7634138653026626,0.3772874638153022,-0.29010192866150675,0.37304643111847163,0.2826579910346966,-0.12344813064490867,-0.7117948940468586,-0.36717201364172025,-0.39317103252470165,0.07660134073230908,-0.4895179756992317,0.44412712472739224,-0.6526720351341003,0.2319754358604265,0.5630858873589366,-0.5970482018063159,0.5219844649748085,0.7406146531468056,
-0.9736942618486419,0.13319405224824896,-0.6224017463922451,0.5926864949825853,-0.6296251905705533,-0.46566927784535395,-0.11255990025504946,0.5856329292978918,0.4331131116208405,0.07394105771284515,-0.3140197719128915,0.7498377143355107,-0.8028674113081264,-0.5858347388762175,0.9550647877604364,-0.6156130137417157,-0.532260140116867,0.397554560349968,-0.9097846645944863,0.1199776689414106,0.8983749062951292,-0.7834063470629876,0.8526783440525472,0.5061043915262937,0.21862767013535858,-0.5474970415305992,0.1523057235027366,0.7622343850779396,-0.5094232631602538,0.5927567441397605,-0.39170047202259245,0.5377580780827566,-0.2476022255600443,-0.3769188400316518,-0.40069193188931024,0.7930814308067882,0.5038931899071092,-0.6614750459386962,-0.35868685887527046,-0.7556967184607322,0.14679638478231197,-0.8704775818969717,-0.37879815355030555,-0.7935000556245075,-0.28659181127235706,-0.8273017582147698,0.6658684826033391,-0.8742826961161372,3.251820864374235E-4,-0.8075101995034585,-0.758853649325197,-0.39265163902362726,0.5697241841527639,0.2584924399731426,-0.5481781063770356,0.3286527483440425,-0.011131658049951722,0.44476029042193366,-0.5465632525762362,0.8657527080279326,0.14920524603567878,0.60112398578894,0.3885357130665798,-0.8294821362853273,-0.46037049722200385,0.9729137458473294,0.3244737872523473,-0.7996699811340866,0.9441857025684955,0.9543062191566746,-0.7031541458920761,-0.9662038851107395,0.1926906881436581,0.8718392500799305,0.7520581160451432,0.6980571846595583,0.31345740128007316,0.36846905505446076,-0.5654885289842192,0.8884174412683865,-0.2794943244063811,0.6948710964555317,0.07832248883854283,-0.2214022521798861,-0.08665228465760692,0.013514469883984649,-0.8595420722157698,-0.8000061884207943,-0.42435923477758036,-0.31763241867162145,-0.7483856510475311,-0.3891006692274805,-0.07029935938832721,-0.5910785880524653,-0.9368735069726565,-0.5182685079179564,0.7370746186686964,0.15154435566281954,-0.2673593471714402,0.9898740397008745,
-0.5689259543820315,-0.30598898924820905,-0.5817567606086134,0.24783274062673466,-0.4746292359128894,0.9303752265925778,0.8401883170710263,0.680974193141082,0.6634650161876767,-0.9288140208507034,0.22131879868647197,0.6261989407106932,-0.5429659041898731,-0.7816270805492644,0.7317322711159526,0.7404763858807679,-0.39312383487410685,0.054955902255858335,-0.0598074612530104,-0.6117516176457651,-0.29163511471708015,0.7570621398302766,0.7142434571797323,0.8192857771505255,-0.38596489954698643,0.6595612188768405,0.5129329771661495,-0.34633958273512233,-0.7408779304643656,0.6929576700124764,-0.9194901402561408,-0.04192643186584655,-0.5484200914923951,0.15800832038965873,-0.8235926726450098,0.02785921239798972,0.2863088397089011,0.015859556101078587,-0.8337175041553164,0.8815598698618565,-0.43597728894941956,0.5453283189149649,0.05083209636706654,-0.5699509777201184,0.8783925483726709,0.9552784331314588,0.823559198213788,0.2997546153003394,0.8808043166307777,-0.6611280751773598,0.9256181812939968,-0.6303862576226495,-0.3597279361570289,-0.7821967319867102,-0.9946813565652541,-0.7760309716082394,0.9867519806436238,-0.15154708912840098,-0.8081780782673365,-0.07130657615899283,-0.7406958722824324,-0.5517763413956924,-0.3429831238961063,-0.19458997883021256,0.9762531602325182,-0.45084720325538163,-0.6334846683875379,0.20874981155153627,0.6027023952669905,0.7972198777446313,-0.3898406675086181,-0.29582980444520635,0.8114574125750722,-0.31040087303093067,-0.8456122423550669,0.4989337497089883,-0.5833793894062216,-0.021567303758888823,-0.3267398174435441,-0.5035742535493695,-0.49518090081359034,-0.23147009852104805,-0.5081084828680817,-0.07593322978600692,0.19723307465575846,-0.3022746757350321,0.6155023067376211,-0.8723451317607867,0.946293774938574,-0.9875435426966863,0.5192438369003853,-0.1699503664248041,0.3041245882231176,0.8374506525416081,0.23840953265654674,-0.08031063637329616,0.6954999558527641,-0.5127621178229131,-0.0744021303825233,-0.3354901753325903,
-0.11369752347788808,-0.7214643589424348,0.23084443325520088,-0.8605884348007917,-0.44084069172378126,-0.02362132258585814,0.6126950347481208,0.6105010859991762,-0.30885672003347153,0.7431956343320922,0.0026434456155204344,0.6369091345313267,0.27412786247130483,0.25886261672814226,-0.8776884054807843,0.7310670355177142,-0.6734137442062527,-0.4589090870856447,-0.807797253908437,-0.43909903320744204,0.11633044386243974,-0.08066442367655968,0.7728112502167219,-0.11751833151212132,-0.9531131140458771,-0.39826148652650484,-0.956673999746489,-0.34075476912470637,0.7559107312533118,0.32344895673825413,-0.04988304769826146,-0.8460211052187563,0.6322418655182842,0.6759909863925737,-0.6533517273603378,0.17234365215791847,-0.8210899855714666,0.891177261523908,0.49841417160789914,0.09178416443167081,-0.5674006221013179,-0.9106047128535546,0.14094669327513798,-0.1727464999395767,-0.004213699507025659,-0.6990786808680727,-0.34410205406235184,-0.534739950328589,0.14596575862094818,0.9302441111245023,-0.13034781914540017,-0.059679998301943815,-0.042912726503416154,-0.24278936141303675,-0.5191233503256902,-0.167021178597055,-0.5984778695760222,0.0551317803935667,0.18787304306512786,-0.863858000203912,-0.0034114668194704656,-0.04518356997917894,0.2135442493845492,0.6665340820357026,0.7178630203951399,-0.2051720095603231,0.11524447082448996,0.6906829056189636,0.6222106918982686,-0.12791141306952758,0.5187344847664543,-0.7100958202815202,-0.09333048626060458,-0.25671902595892093,0.7299152982539137,0.006339720373432778,0.9750267406462183,0.026328801985257,0.054968842225967984,-0.6078197741440805,-0.50787055337295,-0.487436654392313,0.09898513618976112,0.22678275698421446,0.37667327815880336,-0.6759881533525463,0.31511076205909916,-0.6285298256588314,-0.7835825837636565,-0.1634272655177169,0.6407041302217309,0.4993779863356067,-0.31452297109629423,-0.8613312787489733,0.18393903430740832,-0.7322070384151864,0.2015463206740551,-0.09370022981584869,-0.38625207047866117,-0.1069947491748009,
0.2816101694262907,0.7492428564365403,-0.8420473992532209,-0.4572261769544985,0.8379041456634813,0.31947616884034447,-0.07111962923195025,0.4790842246196194,-0.9984137683942589,-0.2282674191512699,-0.32728080346367117,-0.5360459448145543,0.969787278549294,-0.4725853655809127,0.9783164187333244,-0.41637877065197904,-0.15759083650127992,-0.28306745898799934,0.4830805705281145,-0.6484724246473925,-0.5517562762180732,0.1618544713999317,-0.3219024152921113,-0.2819115283011462,-0.24431141706820658,-0.6929142465292615,-0.4584734759506144,-0.5546831816441502,0.6215382007855723,0.12462371352433177,0.41879282626849257,-0.8030505475944367,0.3520331339661791,0.6842596754642853,-0.679949537545437,0.6498000391127938,-0.1664481423774915,-0.17706805161668226,-0.8801630739479567,0.9496420087786248,-0.1639654209352963,0.14325810833390995,0.02079892277610984,0.9150033200958974,0.5004291923054447,-0.566895074392,-0.9171808406817148,-0.4651682581082375,-0.007844494339991126,-0.4781178737834717,0.620827548254054,-0.48893098977022587,-0.16421575538164723,0.5755741598441033,0.8390345906956196,0.8647489148063288,-0.45816748000533036,0.8813517697167066,0.19627580916056142,-0.045686329552143246,0.7947792612450812,-0.7160656700902002,0.6866108247923979,-0.35257963405236303,-0.30789196955031817,-0.39029852640572305,0.4712734920422772,0.8425874462765208,0.30738746493254654,-0.3491200283154945,-0.8874780896816503,0.05460977733696204,0.1961025677377901,-0.4190383016840016,-0.963109056127549,0.3577481363698638,0.3711534136098569,0.03383478766854808,0.7948030121600222,-0.3767217260733198,0.7456408484862409,0.5029392427702752,-0.8145543388981091,0.693061534636551,-0.9262376135249284,0.2030862479531068,0.380277506351409,0.8983780827946497,-0.9836568429436015,0.08640848447594607,0.8054781190715925,-0.8366584914029809,-0.8842677021278873,0.3152367640812497,0.7331092034128126,-0.17520827981637654,-0.8145045243577664,0.16852642691550956,-0.717291208973841,-0.7443585934863912,
-0.09646002169912093,-0.90521456325719,0.8494924725862079,0.3962290626127689,-0.7569898985921111,0.42328381522495917,-0.14771079251262953,-0.6216899079808567,-0.2165055855877469,-0.8933480580940041,-0.8662075789028143,-0.43110473821459805,-0.08421013221805063,-0.20819514285611396,-0.6523404434300124,-0.43377554789373396,-0.5133301546865083,-0.49754479967719467,0.23144773705897248,0.9477410995607911,0.5258079619883631,0.2653083021963445,-0.20867520316936372,0.9000112748717035,0.3552106066811138,-0.8766405172040972,0.11394893129389039,0.253109472871037,-0.3977837675857825,0.15354162624459144,0.7728631094352008,0.8970709836276936,-0.5796790968711547,-0.6576994187571252,0.6112039757401442,0.0755894409381086,0.5677942014117405,0.47150207276399736,0.0594771264159748,0.6322153936178507,-0.09774870398040258,0.5284041466025524,-0.9133955239493456,-0.07310905647324217,-0.6799486059873334,0.5772555678243414,0.38440267077482604,-0.15426753031197338,0.2025949530585931,0.5164090173344142,-0.5498958772679203,0.09455262096619133,-0.9727043995163132,-0.3063325461591182,0.8584857283256897,0.7966902064459529,0.9592059981995824,-0.03609219653146556,-0.7953771286448659,0.3082949357053899,-0.04002062972325815,-0.5531435981928761,-0.04975887956605707,0.11929226653351743,0.23405233764900357,-0.020782524548723202,-0.27891174654236406,0.7258313986639833,0.6776372509947477,-0.9458154618981569,-0.5202946292158419,0.4400979306791384,-0.5956844163779009,-0.0973075537383774,-0.5625727164274474,-0.7540495571297239,-0.608273289323559,-0.7054035282143691,-0.4286045677067163,0.013918831241310325,0.8270505559439656,-0.3757077745089208,0.17682094514776714,-0.3433200123108817,0.8246841990384948,-0.10588094851453467,-0.9883130555075164,-0.8637952900135979,0.8477168490391009,-0.6797832551903371,-0.719466158378681,-0.37365218272350464,0.3855103141587084,-0.5406650300837503,-0.04407647641808876,0.5897314019686832,0.2228949891059102,-0.00857873040186763,0.7506314871571638,0.045349861267018454,
-0.017804812488281696,-0.4083573141122516,0.43057017433636124,-0.11659747370356754,0.5274996243162469,0.6868241600817397,-0.9021020723866648,-0.27356116922106355,0.29129753230039057,-0.684885514555156,0.575723294641556,-0.4590216610281521,-0.3831976824600616,0.7940189646119988,0.09026600233477788,-0.028653793286318674,0.8049893471628531,0.4507661801696661,-0.9267106365387932,0.19754366072228868,-0.2864235708621439,0.2803042723445115,-0.9029272265700372,0.01154936288231645,-0.5241209205516044,-0.9299498698169386,0.7061449767297023,-0.23847230573936673,0.1906764358060562,-0.7331566406976817,0.22445259703632647,0.8309968656393818,0.27992531464800097,0.6603845683333196,0.49359137995301183,0.40008783760738087,-0.3806354544564128,0.8187661759043006,-0.06281935364429048,-0.621395656495884,-0.4822458312982305,-0.8644686249543818,0.348414895413951,-0.394329379163334,0.1536967312090689,-0.6659739175228696,-0.6377212201804521,-0.3216666424980621,0.17469234546086754,0.32363517601197134,0.7008663778632391,0.1015615003497854,-0.17871921058109996,-0.5861755380244154,-0.030303242119911866,-0.15533449820660294,0.15982833567168697,-0.9342639834967217,0.03487254200513057,-0.15576316824650194,0.790719128397485,0.5974144392379834,-0.1746187468696554,0.5112850444919843,0.7444147479399688,-0.4424320072550678,-0.21820932856752284,-0.11967019984981508,0.1860484892009846,-0.15590210601598709,0.1120450463014604,0.680781429267181,0.01992369669961591,-0.9325430564962232,0.5170200440583268,0.31602313717880914,0.5184893188261444,0.14522641573640938,0.11294856971812806,-0.4968146202321906,0.6960681631381394,-0.3368713564452841,-0.09521762653954258,-0.843318776822374,-0.6941828364615252,0.14902043257724373,-0.645992751256824,0.9911500615725173,0.059101626632493964,-0.9197587272729859,-0.6636163971918496,-0.7254660879307306,-0.050331333179110205,0.181017713263252,0.0995359534257898,-0.8204093586288939,0.4107085101182171,0.365453617099758,0.7072695445026982,-0.7377755461782587,
0.44109464458520575,0.5429645954424382,-0.10305600401669013,-0.26240610820137245,0.8077980498700139,0.42684204588961694,-0.7218118358630508,0.43003440342889676,0.9646726581348308,0.47296175044400357,0.36569271648797685,0.5404114349457037,-0.5764862990169746,0.1244785103619157,-0.9342294004259684,0.704597786955824,-0.028508218961531107,0.6496776734710565,0.9258283026270229,0.2093476620193837,0.3497712403758886,-0.9660176748139064,-0.2921560329297044,0.6869165642265216,0.7913217270834263,0.6234418735809306,0.6614022286341834,0.1273564437186332,-0.8383625449125949,0.5158580530723726,0.2487875833066262,-0.3725087766787991,-0.6457205622003035,-0.9429697182696897,0.014092033766837098,-0.06184189906755333,0.06386205614728957,-0.7765681194183238,-0.20975388281084273,-0.4236228989520243,0.09230465597348236,-0.8410439715382729,0.5023344827001437,-0.9633110527158275,-0.06012414681777756,-0.31780070231606095,-0.5474885358036872,0.46598087550387945,-0.4092417458064199,0.19207717073546893,-0.8387155906423343,-0.9413029960039097,-0.8764333173517338,-0.9266036651535963,0.5918861567786338,-0.6155917429763533,0.06045441271561547,0.44033432576837184,0.8989107948115322,0.8772953194293251,-0.7858535324224172,-0.14539305329037733,0.7193404761173401,-0.20282397276982755,-0.7995593607950278,-0.48356897182008396,0.4635433062658223,0.11428597223249137,0.7544217808990141,0.3502189004408909,-0.9342234891182326,0.9751010469093362,-0.4781634392693721,0.393268501708389,0.2181814587038322,-0.3259332284005627,0.0927796957962208,-0.05545883984581912,0.23921050872775718,0.38617838404530413,0.7030455252742225,0.041948302547478944,0.41687886625368864,0.307934046493872,-0.7507975276453269,0.010394454934049113,0.9191872877177851,0.30926107843086825,-0.9533498333560055,0.05915439145559942,-0.8214844951878126,0.7165928965913124,-0.8943771807422933,0.2059882453700057,-0.9662617826823221,0.42735433493886466,0.6083054485172654,-0.8332720424221347,-0.14673024737325213,-0.8013118969189645,
0.740932430416749,0.2728962082724924,-0.635804343017808,0.6583365277587814,-0.9320589283419933,-0.03375325515188665,-0.02289661630489892,-0.646831780532114,0.23095653367372848,-0.03205685844742834,0.023176628583009062,0.9809192265393119,-0.08641388071676137,0.8314222486143716,0.5095717724209212,0.8432950421388254,0.7337066001178074,0.2618149171981532,0.7510475229066513,-0.48634082191607253,-0.9918720114624295,0.32112633964007675,0.5502716648211523,0.7301109957352345,0.1802239362532918,-0.5627947961072686,0.47618316781883663,0.6048344098367406,0.10931870656704579,-0.004139540392978702,-0.7707607931430842,-0.6168228453635065,-0.6086734093170805,0.21931045309900354,0.08433192421232727,-0.8090026558977486,0.4133406046457966,0.020479884045492946,0.9666106298872348,-0.5236056389099499,-0.05942795577635995,0.571486020787155,0.8424001820382747,0.1820167167072151,-0.30775574486842006,0.4359849004165548,0.7968582987186184,-0.9232803900494662,-0.41625166136349234,-0.7111239339804032,-0.5780321221653717,0.13042179999583658,-0.9044293403951451,-0.5168076341525876,0.9529140901160706,0.33359056289447797,-0.42479422983891,0.02282960683361912,0.9678481527318754,0.9428603811398202,0.18647093569418338,0.8610993283320441,0.40549356720778906,-0.22312941440937295,0.6913423245766568,-0.13108499789528283,0.15700362171586413,-0.10851610865364947,-0.7173647623771233,0.30275168415971465,-0.4470679913217195,0.7311269173726491,-0.7184455415600881,-0.8486543280342731,0.6931311363315993,0.6830715392768887,0.6723437854506338,0.35143013652884236,0.756846518141383,0.8540539347605607,-0.8330334924703413,-0.46337036161108625,0.18222850998556162,0.8437063227192136,0.7759526470159324,0.7199660257774834,-0.08106477211556196,0.30685493794154195,-0.29274915131119705,0.10925475973299625,-0.16554519509162113,-0.8231847364360836,-0.17687346339469223,0.11599975812390095,0.7942268836019453,0.5643941086320703,0.8558513361348652,-0.4577768501669224,0.9375972774063714,-0.4476136622035771,
0.11613090182624752,-0.08400632680841347,0.2360930909086476,0.3729315468914085,0.5239226003654036,0.9952462233017978,0.5474571318067578,-0.21482512231057393,0.4494965610876436,0.5708128073690963,-0.9316640112902674,-0.13674605572079668,0.07329765622370976,0.8734137235092241,-0.659533133199333,0.8597114857731316,0.7563684330076244,0.1256851697616561,-0.22033677211324854,0.3270129515610489,0.2587963635476984,-0.9208513035495653,-0.9261486503124248,0.25992419306471226,-0.44814821593451226,0.7373545854535399,0.7358634227082912,-0.3359154416860113,0.4401869932522584,0.8902611560207085,-0.40135425504797606,-0.3388122494994368,-0.756332359874319,-0.4287617258188552,-0.8950057932562607,0.008760991292842801,0.38411411282023544,-0.9030870745520885,-0.1291183272829841,-0.257388301732012,0.8804304752261645,0.961402055222994,-0.8091046098630739,0.5425882849965684,0.47630416488380733,-0.4696939423247093,-0.09374430791957744,-0.622619585095709,0.40786058321833063,-0.7838349067131543,-0.6296598602204724,-0.998338029931308,0.6643623254004525,-0.38409269545689817,-0.8764089472548728,0.9589576402260918,-0.9967568123316373,-0.047852581073148936,-0.6708639913112429,-0.11380669718588154,0.9514725962505544,0.08402143989363298,-0.9775938009983764,0.1209671987418861,0.558447515171077,0.33957194455584383,-0.20751136817889804,-0.11984195066731118,0.7613134521621467,0.4705255637213488,0.6399021168632137,0.6085635948023964,-0.11818242543825552,-0.8583658351177814,-0.5550589975885978,-0.5111584262448678,0.9945021739815736,-0.4594230012223861,-0.26731875154670326,-0.4408960769803252,-0.3107522669335152,-0.06924839443681075,0.2352000880865801,0.4020910966923743,-0.9031202439381074,0.26810745809468894,-0.8714899206539442,0.9499343032735093,0.9547553534173732,-0.6354943722414013,0.7611638647560921,0.5910889776919759,-0.0400506441249715,-0.496084307492892,0.19343855509371255,-0.5288971648209462,-0.3091371173817259,0.9040882037200337,-0.0695392191518478,-0.3535410840072146,
-0.026219871083984714,0.9651714009432515,-0.14041188028273277,-0.41918782297388946,-0.27089788167646045,0.8580659879773549,-0.40818537441433156,-0.6344824326340892,0.05269002795294542,0.6791427764780043,0.15892142808576648,-0.9985766284650508,-0.4290470607925403,0.13427434396087778,-0.6674527539953805,-0.9035157687076825,-0.045981231058965344,0.5139600983902795,-0.2916942217192404,0.4138243661658043,-0.12047073000991504,-0.417346274872876,-0.8624690609806014,-0.15253899804297433,0.7103046469625474,-0.07077215247557445,-0.9088167884371465,-0.39202483674868116,0.6823244631891803,-0.6881590338817538,0.10490417023190735,-0.3320040073932684,0.4951768068423428,0.5792983363445858,0.5811593111358677,0.8474421089159174,-0.1446711764395543,0.8623278383195643,-0.0861381353563564,-0.6889579881503318,-0.2567238995421748,0.9020185710218054,-0.8471761589594038,0.7057340458129242,0.9588316212085386,-0.38100035113726616,0.2398340252756921,-0.31687671345663704,-0.15548349207791357,0.32576341144876153,0.2251148242400005,0.1322527343352784,0.9952203640345159,-0.6541338072644973,-0.1876360304406559,-0.909477464656693,0.23300000133928278,-0.7724324637165447,0.08253945454758194,-0.9943299859890775,-0.8409105778175128,-0.7742025950881006,-0.6890003138174803,0.7893014494941861,-0.809102590543676,-0.7248318982749922,-0.580436186010211,-0.06745581575547677,0.149970909261554,0.28807672251838423,0.7945101237953551,-0.1530338154178832,0.18760725293908176,-0.7142284899062725,0.95348397069034,0.5489881506224041,0.11799980869769233,0.6065839228045276,0.8587393033125208,0.8235912029515957,0.07450560033551312,0.23435595340117787,0.5510912484311818,0.0832019202504799,-0.1871732880723469,-0.8485792103395569,-0.781589443046043,0.2802135622439277,-0.04440059380777006,-0.45567713513964936,-0.1855564573766062,0.4366817390223314,0.0060896650512196615,0.6767913297460655,0.9081936516511351,0.6223099019760743,0.05439517439284969,-0.7066907137516256,0.5710560847903594,0.5419184691883701,
0.7577582373341534,0.5279493992361763,0.79834678703615,0.2861696094246742,0.3972965257717489,-0.5330260288525135,0.2138232769767794,-0.7456020677430917,0.5966621575443567,0.7500265500310366,-0.3797536402487971,-0.22402476045754827,-0.3661578892597972,-0.1064303656919543,-0.6640154637501481,0.5367153238597644,0.18551705036829746,-0.6184483399644936,-0.8028825769310672,-0.4405960169038585,0.814097282065759,0.9921137648279612,-0.39355329052065424,-0.807383768101879,-0.45924027680164614,-0.6845239346726606,-0.924724009874702,0.32956180909611255,-0.5564890463593306,-0.03302942269490683,0.3307752982083185,-0.09122254761396453,0.3775055206369593,-0.3894843156882677,-0.7488027130528001,0.6410634349568913,-0.36444829886984453,-0.4183432578255881,0.643167366725589,0.8621388975109403,-0.35005978809063,0.6356232109328801,0.1897212376870021,-0.5719301154307859,0.6824336809701466,-0.8553169031425556,0.774717941018044,-0.34939965832850217,0.8574589732344189,0.9304024183825854,-0.17129165052702078,-0.5879030483644176,0.8642465875180385,-0.15975503596536367,0.34329335285917084,-0.19510562548204868,0.18686503465320503,0.1642778440917667,-0.23454175213667305,-0.09259341823030698,-0.18319880659841048,-0.9634262891981724,0.11032323240377306,0.6394492322495318,-0.9390597297569798,-0.9227686538980522,-0.6797965806348369,0.03179349233391626,-0.7214968717524246,0.7047619515040553,0.14982402239996828,-0.2999471685094206,-0.8362996540800545,-0.2150811834962607,0.6719905759189173,-0.16941992830468622,0.5365675286200884,-0.4191253743234695,-0.12503361205931607,-0.4338686061221244,0.5126470464841291,0.3309792721962874,0.7622624511292839,-0.6783681678291105,-0.6071128601557052,-0.7958407073408464,-0.13250070944238068,-0.7345453437669018,-0.3516698870108901,-0.13065133011845043,0.16145177259088173,-0.030794391023623247,-0.0301339295881371,0.4641668461342974,-0.0446574507630757,-0.9409195564947122,-0.48846883261427965,-0.640608753307343,-0.4060988411370523,-0.4055565798008183,
-0.8234680564433512,-0.21040378632836187,0.4836614171187892,-0.14564905791605587,-0.9216178699722624,-0.8433391623216482,-0.6835799255063966,0.23032446323185618,0.15523881060962186,0.6116753919191753,0.22473477294277067,-0.9962467132451329,-0.6762690694927687,-0.6178958182187813,-0.9542077212763671,0.928887283518204,-0.4707264739818613,0.23489069869300483,0.8719295768325444,0.7474568138005251,0.5830664554707834,-0.5474804234974746,0.6305459592527558,0.028535351007615617,-0.22832227487887247,0.7478774121688552,0.5630948137084766,0.057339638220544,0.8833158170065902,-0.34491727102137615,0.16229907772750396,-0.11076223275464736,0.5155982684780629,-0.8927160086476662,-0.6213136926769984,-0.8596829583154428,-0.6871738018219935,0.14875222488857243,0.7219922226418125,-0.39656173601143063,-0.8735213038253533,0.027422466885606234,0.2599359411315878,0.3587840162686169,-0.9991565198749688,-0.7246320320647943,-0.5436781609638623,-0.30951547079982267,-0.6435966510909801,-0.19148272912673714,-0.7076229584766944,-0.1740154749067806,0.7768009056870968,-0.43674613607009727,-0.8203138246102974,-0.7176092618117218,-0.5990918255036228,-0.2636345624881966,-0.19996130033544324,0.43412019744317254,-0.9202706269789502,0.30613838534534854,-0.8030437044489629,0.8087451916328205,-0.8214307641541228,0.186220517711297,-0.8043780949329256,-0.42698935304167596,0.1881025396618794,0.10020472250020562,0.5423848090257966,-0.3114233315758965,-0.8463177911091757,-0.9362879184887924,0.03196894093040181,-0.7028818546234503,-0.6595710883546289,-0.7779166027192266,-0.670035079213229,-0.963009603323016,-0.47765472766599526,0.7156145372869307,-0.799860027647596,-0.8012511446808295,-0.18309633399343683,0.2305999247320647,0.4105520515937129,-0.10561213820698212,-0.9177422312816814,-0.05672335018928809,-0.2805917970477809,0.7452435483152995,-0.44756784224423196,-0.32491054034978073,0.031060644889058908,-0.01391854075747867,-0.39345285700727906,0.2515248752158854,0.06448623459817404,0.33797005625877197,
-0.648661439999388,0.29309180327022677,0.6910488135885233,0.5201176893981403,0.04193679140335238,-0.034147345112677474,0.4752970174418343,0.8509297715465445,-0.7259290822363986,-0.4197615461388595,-0.10799701910335524,-0.968879576367442,-0.648432747625932,0.3507085926119353,0.1946006689450468,-0.09320882575087786,0.2662163770880519,-0.8848553558109218,0.9746354515883242,0.7779675366805714,-0.6772170897297527,0.36169549309934856,0.07879041499069084,-0.3518376411648121,0.6001382127085999,-0.47788116057826424,0.7395068145666968,-0.2968873122020861,-0.8398024771213979,-0.8355066796829611,-0.4728297718349779,-0.7380844462978451,-0.8004527911149251,0.4545019976847773,-0.9537133951233066,0.46136553081588727,0.18435013254926003,0.053317979244247304,-0.8249740887149564,0.014375829552234709,0.4173206707048418,-0.5185507990457199,0.0869634852347052,-0.47405796868394456,-0.5437354622776118,-0.09827097580755284,-0.7041968599680566,-0.944813591279545,-0.6631196163439843,0.26096639062927074,-0.47168125221726354,-0.12040190348174318,-0.35177544466211286,0.7785983016048035,0.35770410845590495,0.7476634420464747,-0.8325569479036024,0.8820142343232447,0.2189745302379067,0.298658389821282,0.9810774312865553,0.862052198348729,0.6800157398703675,0.7834524716815312,0.8034552347751107,-0.24150815668245373,-0.34366997439494895,0.7377535802929598,-0.4516216702441693,0.2842002931755172,0.6344818072556149,0.839299014288698,-0.8814747201483397,0.9579132165816862,0.9086978693848182,-0.1769222946661022,0.8476879457041231,0.039462322401938366,-0.6629683574322909,0.03374612377771413,-0.935835290296924,-0.6524117483650342,-0.8120471341420723,0.9619787328988527,-0.16066387338663768,0.589306451202871,0.275177525752909,-0.058428766077884164,-0.8563478608908592,0.44112121305564567,0.7680064741743642,0.0766946720522288,-0.6470365863566776,-0.7037887764941446,0.8163937457879722,0.4237743502383873,0.3313310893216026,0.3280390800573143,-0.555581365317114,0.4700475284801344,
-0.8378459113080743,0.3196634219174177,-0.9572104413430669,0.030930979259628177,-0.9923445478403727,-0.43063755957872574,0.2304597154796908,0.830907856066849,0.5474718477235427,-0.8929952975896283,-0.1426115465605331,-0.762278358933961,0.9802943391664112,-0.5580690799290684,0.4849353964079963,0.8872424842801923,-0.33178844724096046,0.11193960773097866,0.8073265921713668,-0.7335494961614715,0.1616087139635538,-0.585703573475389,-0.8329132510532609,-0.2854427066948606,-0.436820312093128,0.8735166172611115,0.5692825217278565,-0.24263398552212667,-0.027186892539972973,-0.7630041472139231,-0.5861223413321077,0.2075485554433274,-0.8991851590370754,0.08839589527675318,-0.4575492001271513,-0.95640442768259,0.045134054093121545,-0.4699834949919792,0.13498293648537385,-0.2772255982065899,-0.3010377484312894,-0.19078450035390127,0.49437230427712353,-0.7114929247317927,-0.7117219131777859,-0.7497338461924647,0.8207887736367292,-0.5998405590084077,-0.8653862376432124,0.4018685059145397,-0.29506680390371276,-0.7566901824416246,0.8965220764421407,0.921860749051419,0.25871857369617035,-0.8288551808158076,0.26392627529985346,-0.6054960437907924,-0.44615438016413256,-0.11729319155376472,-0.6372621858361274,-0.9879583169108312,0.35319618908918726,-0.038703535110491405,0.9728308096515983,-0.14893580778151394,-0.0030779932137234844,0.6764117808305508,0.070663906151337,-0.6644643130450103,0.7445598785293781,-0.9048165944105198,0.17854521899229048,0.4021700958711776,0.8764561680631315,0.7543427058178065,0.5357371024794972,-0.12983041275661544,0.4222384317024248,-0.5886601615184257,-0.7976975895525671,-0.4338315788026994,-0.48897697036550425,-0.27669552877787607,0.86479575667351,-0.13344772197724342,-0.9724971776786551,-0.9048782157510484,0.3336070788889878,-0.5068482275802666,0.5100101506670507,-0.6070264019597555,-0.49503211897922483,0.6346366868345497,-0.9588945829767668,-0.26272732316841463,0.9063331717165317,0.7647656054737673,-0.7418072267353659,0.16899707173188383,
0.8520561212866697,-0.11002571714254339,0.5511193114700819,0.6260085541436211,-0.29302536490815734,0.38261321033514073,-0.9843342613537511,0.3710177898188589,-0.2112673922358994,0.04247411652267652,0.7962906704900776,-0.21956284198383313,-0.9646378212350755,-0.4219278874195336,0.07844397313349138,-0.7665603287912326,0.7228554251423791,-0.6895204503926411,-0.8197841163372537,0.7331217424212473,0.2381581186266506,0.576334207566285,-0.054955225313618294,0.8467439303788216,-0.8037797905314803,-0.9570252902042988,0.9516565472947933,0.5696035257270884,-0.9645578317635184,-0.052518349959653765,-0.06563626253200883,0.7971701727732268,0.6340581229481421,-0.8672666332011596,-0.7536951856530909,-0.7673059222212184,-0.5392994486151745,0.6774118109491538,0.20015726205478535,-0.237426021537523,-0.6944057337979546,-0.09677724423867784,-0.3146887261078004,0.5993512944324311,-0.26546909539285757,-0.40857695886669254,-0.41255595988395233,0.8222737214471261,-0.9340226832103595,-0.6479253572860606,0.2258879165676726,0.3379504142496079,-0.10762452418018875,-0.7367256102380901,-0.7238620305590227,-0.26130082917708064,-0.05010579970444029,-0.8660636484841826,-0.5407008328366958,0.05376326804421705,-0.5134047182900401,0.042530972494085884,-0.34277512676433197,-0.0313453937113195,-0.8128181506106598,-0.8344857294370451,-0.9484473383583916,-0.26954202405217753,0.1831972383109537,0.3330084501432664,0.38679588189991154,0.662008174649972,-0.28925173726975006,-0.7643779330322202,0.5221030626566168,0.9754317015402472,0.5735277171572879,-0.24487155305726427,0.06324968729326241,0.40562100956147185,-0.27288399308808553,0.5030463500043465,-0.9441190962104227,0.07678887142659274,-0.9787563377179329,0.3249975794265534,0.4729760061596633,-0.029672292949370904,-0.5801002078264639,0.2650422946457971,-0.4560408543773298,0.3797773058947209,0.8648752717937855,-0.7169774044233996,0.8498335207025132,-0.1812184252425848,-0.643468302793968,-0.12072843534264122,0.5481700448156586,-0.009504869029665075,
0.7962913643944267,-0.29512571965130197,0.09373366440399988,0.6319759047060256,-0.33145460934217974,0.22199503117034025,0.3849844679638088,-0.6853195444322879,-0.2646189081511132,-0.47238759628886084,-0.6063563150066473,-0.38774473131136467,-0.4242670902325787,-0.43466673304966763,0.023966772942638714,-0.5606034798595507,0.02126349029677721,0.12378414379115199,0.20032120202402548,-0.17937204803338735,-0.6755142837433656,-0.7435938053020168,-0.003883072418169542,0.8654251498964589,-0.7596616324961702,0.056309051024185486,0.9940925733773742,0.3061930624332958,-0.8893670508384783,-0.9188339532127128,-0.9925868179110344,0.5981803994177164,-0.488509995957197,0.14696228554696233,0.7929876010772259,-0.7145057196900728,0.0570891162756042,0.695734344227509,0.45286748660605824,0.10495535585944205,-0.4512429984116584,0.4912690596187299,-0.153456528121811,-0.8703873618705633,0.8166240693766966,0.008056798933935738,-0.4735944154884486,-0.8536855206924585,-0.6782196327367105,0.5526228070732067,0.4605899712737844,0.41681141366675845,-0.1299326888033132,-0.1073120353193282,0.12188547786803694,0.9894438067190556,-0.365657592738305,-0.03156059936195832,-0.6016715061417854,0.8085451232390204,0.09025955381149431,-0.8784818449873224,-0.7794344451215709,-0.9887281996442066,-0.5586911385872866,0.20116022224634578,-0.19698202352738137,-0.9933548533086727,0.6420638297302568,-0.1067446375389014,0.9603357032218245,-0.80082675835829,0.2242871350327067,-0.33308426337513697,-0.912420780912814,0.5494947910553418,-0.2112515057843114,0.844474563228637,-0.9179763620950661,-0.4429315999887655,-0.7536876406248294,-0.5253363005133167,-0.26356914603957216,0.7050061304812874,0.6750549714576244,0.9250468287646252,0.9480886201109049,-0.07526948157095803,0.005874867182687815,-0.5913874967763473,0.46486963502103396,0.2182108482852929,0.6572626278351783,0.020760822111649535,0.8290157344545763,0.21811347261944758,0.7106004421215077,0.28674380632754826,-0.3186935844338563,0.1712782978812155,
-0.7494369860580787,0.7059494133677711,0.6527226180039236,-0.40148722020363636,0.09089685409714554,-0.6717539627800662,-0.3023281577728718,0.7137720696656993,0.2640562907431814,0.0089332023846449,0.9122915551569919,-0.42162817116683793,0.37387832235366036,-0.3373284372858978,0.6333029693839374,0.9209593982127022,0.19368218584799735,0.5730943834001623,0.9273390552514962,0.5715463437506076,-0.2621189541740181,-0.38637003884479637,-0.5423759081777879,-0.46201639093852,-0.5566017792409723,-0.9036072155705981,0.15433590150219212,-0.10416091342734335,-0.9321179762067726,-0.11016994364848509,0.1169338193780789,0.8677144311925775,-0.555082906853057,0.43213681575793594,0.7411896242304192,-0.2643820544612636,0.33213348673851173,-0.6837170413721423,-0.8093887109665219,0.5600866277955576,-0.7536834340397822,0.23382174150656754,0.02140240188208664,0.07232922100720574,0.40032606943402893,0.23847875421295472,0.022053761724358578,0.5607411306730878,-0.3601664462982477,-0.473152036091943,0.14311638750198585,0.09071888250958038,0.6235923160000074,-0.7676505977838786,0.7696580969932361,0.9767800696582674,-0.6008443764272122,-0.910068340240888,0.5283596280734688,0.06857466727266837,0.9966638426714136,-0.7471698921239533,0.32315872527748435,-0.8825515332204976,0.6965218849376125,0.029020056356843238,-0.6421957981376492,0.25780094430201506,0.22249429936396714,-0.1461679855408713,0.5306345662613656,0.46755546176477414,-0.7300541857427367,-0.5734753748438826,0.7763498752845284,-0.23536097937129985,-0.5003396320114188,0.6124385569959219,-0.31850265082960094,0.8514470488580566,-0.5891270126764747,0.4486835118815333,-0.9851545144185474,0.936845633376759,0.3528539071812635,-0.6098624397260584,0.6907740367558171,-0.4546565849428468,0.3425855059822094,0.7938669134641243,-0.8767397667641372,-0.7343580682757627,-0.6732226527128573,-0.43609754754449637,-0.07000459348365085,-0.40414739357403184,-0.9403335064916367,-0.13536314535303573,0.5106179695804312,-0.6897546503115559,
0.8637549320881232,0.8599344238682488,-0.849996136843128,0.10247327902373726,-0.8011689855651822,-0.4536249717882812,-0.012993250846815057,-0.34720309647995545,0.18537119336065636,0.9228780796613649,-0.5590074233624484,-0.2781020522190189,0.011471861562537594,-0.02471116253252871,-0.49702562441052217,0.39149815081721445,0.49845336219186087,-0.7466769427922747,0.675089802333589,-0.848053594369634,0.008128031309280614,0.17861324922039554,0.2816288183449933,-0.8202386280075824,-0.6542968682743961,-0.353593673392837,0.37679182964031627,0.852879340180563,0.34536153817795534,-0.030186038366851863,-0.4612551767102227,0.3192092488107474,-0.5787035200400713,-0.23567987405614502,0.46658474364762864,0.76401745073952,-0.47481777378552703,-0.018393097033684764,0.48620129287106334,-0.0857009798641608,-0.32823804804861323,0.9755514915491994,0.8230238656599527,-0.7266389702794144,-0.5225629118138249,-0.7803833846305834,0.814049679245933,0.5964201217950938,-0.9975511550958337,0.09364908431886611,-0.8913895827430544,-0.8019054257970792,-0.4045591699446714,0.01946362020168161,-0.6534476604296051,-0.17474554360000824,-0.5901007657710533,-0.8516459721608329,0.8048079262698024,-0.9662347382072852,-0.2048327051288537,0.7901171138290632,-0.9325604387254032,0.2752284848447736,-0.13956431245328987,-0.1781389786314859,-0.0985751248077588,0.22994734670213882,0.16831033548307947,-0.5736891592742214,-0.790201249078472,-0.6851583953314948,0.7352772257343222,-0.31690670463000054,-0.8142342757888347,-0.2497830702204409,-0.7004606814345717,0.772840729025686,-0.3941927970422352,-0.9132603430071347,-0.8375036583030853,-0.14726650302024438,-0.4231806102164102,-0.3257705860432129,-0.18177262590265797,0.023542246722090196,0.9916918070812647,-0.8037491734516772,0.056130530139596964,0.23186522149944644,0.4497937115452598,0.09973139518682927,0.2550217547407395,0.4378104614793806,-0.5368251872798906,0.5163195186759919,0.1827508696200017,0.9270239622228096,-0.6036711674001022,0.10231149024959472,
0.7735123346712048,0.2573826885374228,-0.22322391676800818,-0.8834613385898685,-0.9241831098440519,-0.9955280949109427,0.3656885589814869,0.010721073755809505,0.8473408384780186,0.20629406463504543,0.6922281618615183,-0.17593260623273807,-0.8818218837096514,0.20650493965993488,-0.36775638440451547,0.7554336812333764,-0.5466282946099484,-0.543247196039958,0.05136443267534154,-0.5751163620408692,-0.38716705492654885,-0.23735102524969467,-0.4654326899245771,0.5486992082345808,0.8490687740349369,0.44396637151064666,-0.2112794083069897,0.011182835483286847,0.16241552671198412,0.9283028109082134,0.4313973060263874,-0.34685184607082226,-0.48914364041301306,-0.5885209010159115,-0.43069809583473534,-0.5139000115404921,-0.8218635538698629,0.3844391834773867,-0.17989242786478388,0.49756101795004726,0.29302426356050715,0.07344384046076081,0.24866881503724453,0.7301881013735508,-0.16262927524352713,0.12930625466757634,0.062026139667025686,0.8971269468615762,0.3882326646958789,0.27075090474605695,0.8505801889323079,-0.5599142427978561,0.31124009058617647,-6.727357646317743E-4,0.6615939810840219,0.6356549903519578,0.15353704089588283,0.009607072549928949,-0.7417789124751057,-0.8575798446235422,-0.4174950107751011,-0.5572366365939999,-0.45717330774535453,0.170191677921248,0.3740365271314583,-0.23794627448406908,-0.6871838520736752,0.40305469620279505,0.6729797282519676,-0.3069808903350516,0.2697801373235699,0.7088593515800657,0.035219735362134734,0.41185591869413934,-0.48323079383818723,-0.28070096146873647,-0.3976170467133519,-0.039784629621905224,0.6555557761676398,-0.569230851112256,-0.8274600596474806,0.7298762518266162,-0.9648270016694488,0.1228785081263562,0.8971270161860473,-0.21690914118742813,0.7049828113564135,0.09491138077550955,-0.12939949567556677,0.759287344306638,-0.807726740376316,-0.010335181347027855,0.9710626986507596,0.17036690502437735,0.3400307731018106,-0.19745341077724213,0.9791875556318759,-0.004028405680661853,-0.8441830962116265,-0.932059227739579,
-0.800471594592568,0.664823497264898,-0.15853229135913613,-0.8320335638802938,0.6228291104627834,-0.25486938854702607,-0.9920178507352622,-0.7607916477211664,0.9963256636657709,-0.03636327866325235,0.46690484021685497,-0.35311075740241826,-0.9381031212871269,-0.4619405841889088,-0.09785956790871983,-0.024057394228175,-0.25291789691762956,0.2269499740955298,-0.792534542316273,0.3577382257874131,-0.9990213276198134,-0.014317363971947031,-0.5269451510397833,-0.8852238241486372,0.8389059490121499,-0.27813860795213363,0.02363532354303143,0.9065022196050093,0.8640372892412478,0.9903461973954081,-0.7638281094730807,-0.1894613732025036,-0.23747102765559733,0.838772118255183,0.7105227609891167,-0.10279459383653088,-0.8292361473183081,0.5846715343889305,-0.7823124364021193,-0.7324786130515231,0.39074128017270443,-0.6046835103346888,0.6093371442703636,0.45425078588938134,0.583471895772898,0.4597293644570436,-0.774487738081879,-0.751230225458549,0.45240635896895337,0.9044191380344767,-0.7623294286820892,-0.7006990972396977,0.5295629800820635,0.4345147401333607,-0.5023216363829226,0.8248489076493678,-0.5871166609825693,0.8662576866107737,0.40266573307239073,-0.10367096718151089,0.2888784670636349,0.6916996175223477,0.8343045676809183,0.49637458508984783,0.6013946618516792,3.0496853723582395E-5,0.2478758008868137,-0.617172204756389,0.32136760503186124,-0.5654851119997752,-0.18826751166432268,0.9154340924754201,-0.07130717315256796,0.07617367266346008,-0.5356859867213314,0.3475765088258128,0.5417547698775802,-0.4965457322947778,0.6038939122393474,0.6515066051691955,-0.011913127045692154,0.5440876795511693,0.9119714732989131,0.34575521143416704,0.5540247636238866,0.480500827922568,-0.36453489723730864,-0.9754804047164868,0.886786036925173,0.47927211203278686,-0.5863116215488275,-0.4361456061413663,-0.4969477378062475,-0.5100226328481324,-0.1924961582254666,-0.564776450495823,-0.45597781457371545,-0.8927757101584443,0.6239681306192848,0.05829503968546171,
-0.3961552699163742,-0.719036381245175,-0.6497845536281665,0.409151989944816,0.014668908078346659,0.43687665091864647,0.5075187932143124,0.15669888949547167,-0.3708552715574959,0.35785162671231857,-0.7496252988358212,0.44451464162023924,-0.7418867339688642,0.20796943153745015,-0.9427762663230018,0.4300531665825913,0.04962587063888903,0.9775352904152776,-0.798550552028698,-0.6092425454702931,0.09885327605412655,-0.28468471884586805,-0.8650739053998201,-0.01848699270932826,0.6621109654068431,0.1237225282089797,0.8041528763457078,0.812692447613092,0.8726783627033725,-0.24892824401129812,-0.9449683502795404,0.23781943765215047,-0.6003498340255438,0.6182900086199825,-0.5171517602052415,-0.3891703009458479,0.27591596853715966,0.09792661636400707,0.5756170541840386,-0.04117198808739111,0.4289732403471794,0.8344630026370056,0.3952540136222358,0.21000246985917131,0.26985506803265075,0.9848705171948678,-0.19029522175576274,-0.0881167799728114,0.9234128883675131,0.43112866726071536,0.7856503054386662,0.27140217970193986,-0.08924989481824566,0.9381438722335782,0.30484673505442145,-0.25263051013341553,-0.07772175754696241,-0.08355786793655429,-0.19989551786528825,0.5470794763875123,0.6907113185755281,0.08550532550737608,0.3528386279513481,0.6537471120709267,-0.6248188834163534,0.9309303823207337,-0.33003593683274085,-0.9065923209637202,-0.8419993373342678,0.9362351433373783,0.5685517028022182,0.9156336326831498,-0.024906923254136737,-0.775108593541027,0.00641072988884058,0.8228215452505665,-0.3393771787419927,0.2769133900911596,-0.5625784896466931,-0.4178615808974061,0.8092653236830373,0.8003722537672902,-0.40379337893052447,-0.2185490331763519,0.6913586882990193,0.9001109649949692,-0.6548584988758475,0.017532900541924176,0.44826682175873156,-0.0599010411424071,-0.8355415849431176,0.7094000138272535,0.7134939934699351,-0.7391997425854248,0.035573196917272475,-0.6546734039957155,-0.6194245553837158,0.6903694467161603,0.2893210575238832,-0.33611749007306446,
-0.27882310390804227,0.6213809691373031,0.7858496535857309,-0.8335994356641089,0.808382765722769,-0.46449815147419776,0.22336725709008437,-0.6837141283463487,0.9153433490287208,0.09072309740755195,-0.30139042430567853,-0.32432071056615214,0.13819058876924412,-0.2845463482061006,0.2716258890757801,-0.10435331199901184,0.9010955305312784,0.7262761518710704,-0.12251025167683262,0.5976376846596667,-0.47665524720460356,0.10809423967613253,-0.7504016680061101,0.5166742809035186,0.860198058692401,0.37162992259810845,0.042554593000306486,-0.7329753384010276,0.8942095913243564,-0.13140704647494894,0.6251706540828944,0.3449067865635778,0.24957472895959865,0.7332423511916684,0.6735493824983361,0.47909651627247957,0.5147988406986929,-0.9149628512600505,-0.8233985048145505,-0.15626588679845108,0.8973712253548085,0.9471160102510187,-0.2100773954315192,-0.2762256077326768,-0.09520505855954352,-0.749063247650371,-0.5882982906304322,0.45846710290040504,-0.5384130985748804,0.08072797690503561,0.6860977656741658,1.022255548903718,0.5572864652709949,-0.8135056363007909,0.47463059722508943,-0.39367565522576836,-0.25226391204182774,-0.1243118883913369,0.9288549630526176,0.03279757681313448,0.9043017186781636,0.9890481750628307,0.6543333767716597,-0.9873373369926158,-0.7279629116287584,-0.7212771408850059,-0.9179938220286065,-0.6235953964918092,-0.21710977891863575,0.7072532381924043,-0.7666194057101934,-0.4375048115374685,0.9898649407093232,0.893581009740073,0.6862861129646247,0.6641782744327348,-0.26169290716358395,-0.8008424541626682,-0.22237744314399327,0.025544174407984625,-0.7077906455315744,0.06792242185713888,0.4534306667798391,-0.37621422271038163,-0.8205795742135215,-0.8922262788031491,-0.10931543287997578,0.05886456451408026,0.3860211223042994,-0.4207870993996984,0.3689762381093693,0.5710961084645583,0.3551486194284633,0.5014065066909921,0.09117752061523124,-0.7088470838428151,0.965201300096484,-0.23886766278616092,-0.9978627809275692,0.7208397598618702,
0.9916464758726397,-0.8089287481707357,-0.13775258209629127,0.5694518093207833,0.7035013849784052,0.026826156196041263,0.07129449592731402,-0.332512337639302,0.6634594549500108,0.6998072299415655,-0.7075029360807789,-0.7384130220861105,0.8546609217309064,0.5051299677955152,0.37478225832084755,-0.22391282224710377,0.19296802514821135,0.005579409006597527,0.31808214026603354,0.7125660449029887,-0.2089703956238184,-0.9635801520854023,0.39939276997951,0.10015071992600254,-0.7927853086549123,0.9091350047991545,-0.5953737072328206,0.31446161828463565,-0.8371923342652741,0.7690395671143566,0.9899478381368749,-0.21362669112869162,-0.875925972408833,0.7058960818420816,-0.9286955934226442,0.6996110308534572,-0.21754325623827442,-0.9388925258319218,-0.22185206605552746,-0.7337098308454202,0.25179899465878175,0.7131844468362463,0.4787398618464172,0.6012653250952256,0.48133052646223656,-0.22760413337153526,0.06439549816538724,-0.06473708529519985,0.7674815555874611,-0.6643002943168406,-0.18962220049766654,0.18559207299792788,-0.3943974996293142,0.48960829342664725,-0.9792971931030767,-0.5351345902186959,-0.44261316127766226,-0.7987855795884036,-0.3221658735522733,0.4072543136812792,-0.14742985628049168,0.043525870496918466,0.6636766335113784,0.8927145790015202,-0.5121817930004668,0.13220848631188714,-0.9092349230097172,0.6175298946294794,0.8464038043157709,0.6471423693019432,-0.4923887119402006,-0.8155546800629471,0.26609530296575096,0.5702489625627929,0.42062033699641804,0.5649899307843439,-0.9361190874718615,-0.9190345295616749,-0.6224370165405991,0.5078972976370401,0.30438074976995566,-0.018896903918176406,-0.13007208957376454,0.11075245208118221,0.7133875340645193,0.3219290613094042,0.35031440817574694,-0.7705467365692779,-0.15852441933919517,-0.11834253525198761,0.6559604709104813,-0.0721611913174306,0.15971096034730803,0.9965836723376101,-0.7879993370808656,0.45381993064031334,-0.33731096476946465,-0.6388391921000519,0.7519941975468128,-0.485847921417918,
0.4533998831073759,0.9099596575044271,-0.5791852513571666,0.42782473186540537,0.8442722534477418,-0.6670370877548333,-0.7521439123976219,0.575520174720308,-0.7068294029586207,-0.6767695784673458,0.9916936105404041,-0.7237095712481193,0.6993894572197833,0.493257278672449,-0.08839789793058256,-0.7680631013550666,0.726660501125035,-0.9900633793724056,-0.7259505345045777,0.04873404240051521,-0.8979464396085943,0.49289049096900184,-0.45171360990158443,0.20191434520771467,-0.14705890280796463,-0.16585907474346823,0.0532586588356045,0.6469824695549159,0.06589175824743852,-0.13410302028270768,0.3817777322025612,-0.7545645915430843,0.7130602191984005,-0.2481752023404762,0.9280264812321629,0.10652155340523799,-0.7400826338885275,-0.5490043915217727,-0.9455962802969995,0.20915278298285034,-0.4485612986985673,0.39208582288941735,-0.6082551734373757,-0.6139819665514256,-0.8286524769059166,0.039277658733183805,0.4284051492525556,-0.2671724455133709,-0.15558841614767205,-0.4619835623679345,0.5651177392571066,-0.1470247762136455,0.03045211339963989,-0.4446471955528268,0.2092005201444849,-0.9941491857120373,-0.721539954313917,-0.9647566773790479,0.11651731626042862,-0.5846058735929115,-0.9906575579772078,-0.1774966377323135,-0.9596750329673294,0.9824259583380578,-0.5241794055574471,-0.5131572102154373,0.09218497776504206,0.6206764577803975,0.9079550554834072,-0.8472171080018256,-0.6520940850556733,0.9641135677478282,-0.19678251257135915,0.9370403517838903,0.38279103285047117,-0.7562015897212434,-0.47615410554271415,-0.24420020955956417,0.5342268637171346,0.05874727842872952,-0.8460594825251774,0.3419033796797766,0.5622003904998842,0.9079580258659116,0.28150780764776395,-0.8787837706805373,0.8108555870782819,0.6638744389178194,-0.09360727210205196,-0.4469111721715499,-0.3857434529644442,-0.9174939520449653,0.2777857741630796,-0.21805388953929364,0.40522017365769997,0.4272958361370441,0.8317454002520662,0.029860464848466738,-0.5092638804300094,-0.6702307476355518,
-0.8158014199420963,-0.9040127852037091,-0.9423588341225108,0.6363886955007317,0.6328199294353871,0.8008941940877031,-0.8445204592630798,-0.15536377722907332,-0.045721342996247576,0.5566627713269047,0.0502375879648324,0.4616205894043234,-0.4326969359400526,0.7581861415833877,-0.7356772049518261,0.2113235788528699,0.4132028016431138,-0.26546533550862367,0.12079149674488704,0.55096180739846,-0.7603739658548995,-0.7422891863220227,0.31588494946747636,-0.4320909364893983,-0.9209841927847614,0.7524759408036349,-0.9499356564003083,-0.6451280835312608,0.31794264565926106,0.625094857092198,0.7748422216377496,0.8950300632669792,-0.5375661113802641,-0.3776240680334903,0.9539304955539563,-0.04365012972991225,0.5145382126443909,-0.36109993599092327,0.7797192909867136,-0.12415209112185636,-0.5804570167603039,-0.2451386612123303,0.07773605076777253,0.9804471936951513,-0.8515528307836857,0.944885974037168,-1.0050464232860121,-0.22617707364269637,0.4158690008938419,0.019929584044825137,0.13360716198323666,0.18211468771191575,0.4286831180447335,0.0397871092915878,0.31758496653597557,-0.1814165054403887,0.747883224401138,0.7924025510290592,-0.6427921908294301,-0.05302165127395752,0.4716532885236552,-0.0174173015031368,-0.6633057922958543,-0.10867854948174754,0.0016298026654567583,0.558443899508717,0.5732895048831635,-0.003789089362546035,-0.7936880293445793,0.470649663530846,-0.8814377207368095,-0.40601190326794345,0.3136375197861833,-0.5197542135653361,0.028237813477897798,-0.5504084239200586,0.9265460429863265,0.4090816797874307,-0.35676084869614266,-0.4751024482547262,0.5110031423564154,0.5586569298667535,-0.6557023481142711,0.5396410344560743,0.11288201791136723,-0.5942676702781836,-0.7406494760023189,-0.024110295729800706,-0.3590002853541977,0.26742173905743194,0.7699006672750085,-0.8485356217473613,0.9494044458672495,-0.9885146934677378,-0.22406286395337605,0.05831913490625342,0.889176256663357,-0.6191437656243561,-0.31607209595572255,-0.17088470568320852,
0.3262197556980406,-0.7074084517488065,0.5878853473408957,-0.7809280155884842,-0.17042913924797212,0.6817368291155343,-0.6687002344010511,0.8988197505949918,-0.6647618592662585,0.6472426237073712,0.08101257393632279,0.8941009005712794,0.6138018195425332,0.4869988822335382,0.34846040844350135,0.43268373136743143,1.0227592573905915,0.3978690314319083,0.17774578500738797,0.014918778504995102,0.7319432550096228,-0.640311954731181,-0.31919366129496957,0.28165082272083924,-0.8250912561507852,0.004891601730632821,-0.15002198779589734,0.0657323177477406,-0.14802727135843055,0.1463404939967865,0.39005612222133246,-0.9985232082746502,-0.1225564648451627,-0.47548518567515774,-0.05134336271114921,-0.2173217353464926,-0.14622536825066923,0.27657108762665594,-0.48762312067921076,0.6003263311186999,-0.9401194333144867,-0.792737808990135,0.5661215207200013,0.9569836150833987,0.31996094881338777,0.43888393792689195,0.14206053006697586,0.8281777318744389,0.8003269706257371,0.5213679369141504,-0.2668765585478721,0.8752481319726237,-0.21596656761664354,0.21416535119258404,-0.2777394592686287,0.25703083266642146,-0.5435846414212696,0.243063633869636,0.8777487051145584,-0.290688463930886,0.4039464538062687,0.5252139285612265,-0.6640054966527615,0.15875176854673353,-0.28614563129199844,0.7389711591888303,0.9025950961895658,0.24562953012551328,-0.9144168950380022,0.3091621899494942,0.45386450469870937,0.30703373655995564,0.3503520840332653,0.782035618567787,-0.9758433792802814,0.2688582583182159,-0.7946604022676238,0.22411179990303337,0.9090084513568186,-0.18186810739329393,-0.20092116919031167,0.33008226682802067,0.9909378374969057,-0.3797374183873805,-0.3167501470880657,-0.3891539183717815,0.5808009747352991,-0.005056597255542838,0.4627627925546579,0.35288545178021136,0.4589171409121215,0.4091147302736666,0.4307906401931191,-0.3348636812166985,0.817211377037902,0.2638509655408419,-0.9824266411144882,-0.08446070888046263,-0.9168797151848199,-0.2204596462814929,
-0.053520629905057585,0.08587430009410792,-0.028813795483065233,0.26491818467536754,0.9230247542481431,0.46483633310553424,0.7138853647747322,0.6947204641431807,-0.1662820861862839,0.23398216833813884,0.9493497354880843,0.29759694482291366,0.7002842292840769,-0.7046937218461031,0.5680935290717414,0.25048547441709096,-0.32892803359691763,-0.06382418571045946,-0.5830778873314206,0.9949288372336271,-0.5505694458315599,0.8915716238889024,0.165552114186748,0.9617016557103242,-0.35570651897410055,0.4883996444283808,0.19380113764671159,0.8426161990875685,0.6755119090093497,-0.37495476489103685,-0.28873889966692556,-0.3294680722056665,-0.273571924078656,0.14410674149251596,-0.9521252613783251,0.48002996854203006,0.32731073570694236,0.06369967523925503,-0.5189746934452816,0.174122532568379,-0.7718112683552255,-0.9471777427908832,0.6462277594168611,0.190594810497677,-0.7136220735065054,-0.17149810661886494,0.5964019133699443,-0.05442242262231299,0.7679839632175522,-0.7759718321188404,0.5595836799502854,0.5406317248795751,0.9968267469672096,-0.5226272128333619,-0.8488284277787751,0.7411551086405541,0.8138084433690596,0.25668430015323923,-0.13291840393338802,-0.5342912088474767,0.01787188015550266,-0.203719673170679,-0.5806782117964433,0.5371848802806078,0.7651458233594367,-0.21884061204083027,1.8004097962163142E-4,-0.1293127941009063,0.7858488160659552,0.009209071784549478,-0.11933083915288958,-0.912048319005913,0.6783406877458709,-0.7275770767157501,0.4898339929111091,0.21827694509711337,-0.7912243848848567,-0.14875171266396472,0.9408810071117696,-0.048404282535460745,-0.04072868005430252,0.7192013435260947,0.02555758455958444,-0.7879428228934984,-0.16199541718314142,0.5788009252758858,0.6851992386660393,0.18507611505534194,0.303295074185829,0.11459134320777388,-0.29757478534099036,-0.8536994508822845,-0.026432728497858098,0.91188057174006,0.8838753282564961,-0.6577021212141865,0.323190989012556,-0.5482428379820803,-0.9338212082666567,0.3432977486885218,
0.5582427282424913,0.8208621452712251,0.07308475317706092,0.5973801597875058,0.23498790023264768,-0.22136450978317232,-0.016060189793797586,0.0046090626088501445,-0.35714837813460015,-0.4017142415796403,-0.14803719554743167,-0.5722450851622893,0.5602378653529977,-0.12043007068953872,0.08289036009621711,-0.7590898467944126,0.6872955001485843,-0.3541539177397428,-0.9702558117097524,-0.5799511115019493,0.49580872349549404,0.6411925315138288,0.03683133918564763,-0.3931094652806448,0.9841633747767343,-0.7738524442347193,-0.26613192130181806,-0.45293170928535265,-0.42634768348683605,-0.10045800228506316,-0.4698756691945783,-0.892438238495855,-0.21094342959396908,0.08509611401071948,0.7809408136440703,-0.4110125486645598,-0.391201325437403,-0.6320301606337506,0.7114659232170448,0.7776047998990908,-0.7922973937579318,-0.25727891523902097,-0.691337625027238,-0.28092776090827143,-0.5594242957899074,-0.6099215727214994,0.7768553766484754,-0.8821883451210959,0.2648469296866982,-0.01932727450804605,0.7582969601603696,-0.4921085791352415,-0.5672254354737419,0.05111152065356424,-0.9017330238616535,0.748596198191435,0.9302179634273945,0.46568032352247485,0.24539356493239614,-0.7594253029742627,0.9079987638135258,-0.7672418254792582,-0.6990349421392311,-0.3256322991854767,0.7990877478629737,0.98668566165276,-0.9938051807084682,0.2689230236089399,-0.3447013623121134,-0.5175195281480678,-0.008728050734673403,-0.35544523746765183,0.4478246761418757,0.8900838182119784,0.7376580578873457,0.26867868249951676,0.4365335865606301,0.8486306378685176,-0.10932337016371325,0.7373190150205727,-0.1057199755760079,-0.43870035355137343,0.8070226597857489,0.08988299588411133,-0.298672828462641,-0.9238412448522626,0.9319643388031175,-0.8291854407094118,0.23833605733944283,0.4013739974010825,-0.8004403835479688,-0.05284524740173815,-0.32005631598493284,0.9587688501930447,0.7761621260751175,-0.8743775233935996,-0.7178381595661423,-0.15767214764762735,0.0709716831125927,-0.07839478014727436,
0.14397407585928085,0.95729692436627,-0.8335716265611982,0.3096180287531134,0.8077482849033165,0.4972109004831539,-0.5426529608899349,0.6753099802568414,0.5230190321072062,0.786296252311817,0.8466924789485593,0.8627536945165023,0.657774602790572,-0.9480280315367983,0.7422228589484668,-0.1266882171340978,-0.6211384670977039,0.18831200967811784,-0.061350971008403164,0.8862399646021459,0.6884952159314454,-0.5603603319366798,0.4955766235249368,0.2762406234534533,0.5839111529430148,0.36610624818559956,-0.20068135055780142,0.10134615485735292,-0.7883679726510424,0.1818106760892636,0.4674690298737681,-0.37574760722209805,0.4779777935029416,-0.178936545664035,0.386262095255174,-0.08074506554416874,0.1279683624137327,-0.28654710414582285,-0.721650851919779,-0.48018809792605094,0.24554686040532014,-0.6141854669771986,-0.019957242594901115,-0.3043049188871551,-0.9839615287973942,-0.1939121228118395,-0.539711421742979,-0.9846476406927768,0.2921640782664651,-0.5191409736016589,-0.33574630647420134,0.5519215596579992,-0.11872219240921388,-0.059357172747038896,0.15533196497510382,-0.5961942497863582,0.3048112986967823,-0.762751024139252,0.43278971387053183,-0.5474146911291112,0.9955115271101334,0.9827569307793613,0.8241273485739964,-0.9390748238374313,-0.0013216503648971803,-0.8973089519925039,-0.3075810697477668,0.6327975551128805,0.7486461544421139,-0.8555290797031452,-0.25385948544538356,0.6446264884437725,0.8761534613608245,-0.46542103180112765,-0.5710868490906771,-0.9758291679926971,0.8794570028835279,0.8316187276829974,-0.7334071683092722,0.5996726689048156,-0.8717181520899432,0.5117638738804575,0.5136358098097937,-0.7889093073487772,0.3420147708277557,0.08992508794795494,-0.2730025008011203,-0.30537467982962546,-0.9437118673627166,-0.4303522175033045,0.6426471343736574,0.457743885135103,-0.3232855879638158,-0.24178471785470113,-0.5736154171823122,-0.038473969030660415,0.3990770407396086,-0.7052677432660988,0.6128939132395649,-0.3190328457959496,
-0.3106509616811274,0.7870235932134475,-0.09172120582337118,0.012142538902961447,-0.11410542532756682,0.6459443338898809,-0.4472840467313846,-0.011116273489802911,0.2038570185127535,-0.5421635021954043,0.8968090167075471,0.08626594032089631,-0.47822043513923845,-0.513927486257209,-0.45324811209601684,0.9238212083928787,-0.5806647825942596,0.4240756610963884,0.5216250959621154,-0.6247454343784701,0.02614618160966501,-0.8570441353375757,0.428216840589604,-0.9766760098151901,-0.0347900114445258,-0.013147571353795696,0.8196390554466518,0.3388352190177632,0.7390723256522106,-0.37729174286386896,0.8419997749480086,-0.10885470735151791,-0.02991470680335714,0.5517789197460611,0.8661242046823617,0.6035321928546632,0.935238154507747,0.4148001283645086,0.71595771892252,0.05595515706139983,0.16953254750287025,-0.3011693301136614,0.44300174588694125,-0.04795492209074344,-0.19947239582472617,0.2626392314016719,0.7373184716654285,-0.8100566071810011,-0.27329435503745636,0.14803380594775092,-0.16382337106661773,0.06258494775483453,0.1623312851485688,-0.15796320308240963,0.38287767854561194,-0.8608547040231459,-0.5862638213546395,0.8686255523475308,-0.04530099417059407,0.5336177477977262,0.33629018770307845,-0.8767178401164615,0.2871107168490766,0.6837872029071681,0.03274357771766896,-0.43353615987896255,0.1378550870813955,-0.22278624499400232,0.6766997534319765,-0.1703339127251738,0.3882705092357565,-0.22746822479765963,0.8027986284186138,-0.20098716806494707,0.07088101503450142,-0.14105817555586075,-0.08695480872216631,0.4000814070280635,0.42156031152941814,0.09860975163900242,-0.7243682661582321,0.9627549846822583,0.2909079223693647,0.09826900635914487,0.39193219817017005,0.7926119170784467,0.5774143296320996,-0.6223973590564071,0.4260219840408316,0.0929136330728154,-0.38658976811831625,0.5527538818387634,-0.5681769570257521,-0.9412713435870238,0.5897206218077036,-0.4539999487122234,-0.5566236855546037,-0.5869423124887433,-0.8881765074470044,0.05783126836295648,
-0.5029989274551772,0.05548821581623852,0.3518756848819496,-0.9458231064082087,0.9337072478325575,-0.6073235320610845,-0.40260108676498857,0.39104092098134785,0.40078893533800497,0.9258507917495453,0.3351592846564363,0.7195471312859769,-0.46186297626030237,0.5446973835316539,-0.7641044570275687,-0.1732072951520609,-0.43155279997311063,-0.19423081858264657,0.5406823225405987,-0.1323945423489581,0.4892535527999214,0.5627581705480984,-0.054126524966514364,-0.6333480238539819,0.953626075657846,-0.7928769475309031,-0.8813239567971853,0.4512014388819579,-0.24356880157405983,0.5063985530380553,-1.0021189229393888,0.9612260496266505,-0.7657264446569443,0.15519579740875958,0.6526191451327779,0.5597873759810964,0.9667207021911481,0.4687416699378424,0.12303010445690897,0.4404390500525969,0.32243919712224994,-0.5122615036967397,-0.3077492413261748,0.8178639972583379,0.30117339417202665,-1.0065194834455726,0.4949629778857693,-0.37611524200384705,-0.4180698188935663,0.7733398200421538,0.9155345793101176,-0.3395099968778151,-0.7882087260531371,-0.26791183303040605,0.677113668223279,0.9275379432100055,0.0653803308003883,0.8375330097384761,0.7070449361929335,-0.24441359405896987,-0.7286169221586913,0.3864820775322169,0.6940057866386379,0.5152624071256964,-0.7516255672455219,-0.7651913040845671,-0.16830654752207805,-0.8781145508963758,-0.044103547618845176,-0.8862921623685831,0.573356520472949,-0.3856397372813404,-0.752564749249046,-0.525652434549202,-0.3588719740764366,-0.19148295785917568,0.8016828721986142,-0.29195500022206267,-0.6986005853605712,-0.5475203546369958,0.20371695324883551,0.5395158715167472,0.35360943773821946,0.5111287299117387,-0.5022177537135163,-0.23332816898313824,-0.3601187166936108,0.6108514335796136,0.846291815324909,0.3671385105899259,0.5784580854246975,-0.25769648781853494,0.5655553342584688,0.9659584805226945,-0.151583400220808,0.7146527094498417,0.8272636563935581,-0.9868694603230977,-0.17402642415062872,0.18594537521020163,
-0.8161680291988118,-0.3316364157086343,0.5702050198722236,0.8322389624870862,-0.0880941683059624,-0.2076583536040078,0.3128956334797583,0.13261255133943542,-0.5204972348028358,0.46775339789992687,-0.8978326984145855,0.8764638558494218,-0.37503771934643604,-0.48524352442092383,0.44942867775557455,-0.4377086225387305,-0.49439476122549514,-0.09601021889850297,0.08513359868153335,0.23014458858002607,-0.9213744087466557,-0.7396371932875188,-0.4743194798608191,-0.04809207860057198,0.5729123396569694,0.04313354572439241,0.05014860658647629,-0.21138452814332376,0.3853654678027373,0.9613037685318392,-0.7280138324934037,0.2390977212649673,0.25799072671472545,-0.5410785300852897,-0.2069103237102305,-0.3204503644510311,-0.3952836325815864,0.9958977316263969,0.12436658066438232,0.9653190049561636,0.29300967082039225,-0.49206418432618615,-0.9224981007769925,-0.5738804567463638,-0.14959187792486484,-0.8475224345126355,-0.763116267671761,0.05145518952612015,-0.9734732414652137,-0.5972958410128533,0.16592830237266815,-0.49133375000271956,-0.17018740306802557,0.5021329220300152,-0.39200327482429165,-0.7558127418376832,0.9240094916162513,-0.7310161700179434,0.5956450687618983,0.533042017085595,0.9246912396348873,-0.04407630665466051,-0.7153783032485997,0.054477240928210144,-0.17536425669163924,0.002968001816104962,-0.012769977314535686,-0.11203904665650592,-0.48106893712526155,0.29958483540708614,-0.21492380683839032,0.47906283656693033,-0.649196149103724,-0.2891434336051013,0.128662908546849,-1.0046375016378661,0.4076733606568371,-0.16454727347529818,-0.47214610995434814,0.6574824911451929,0.25272547229453374,0.9532778842677784,-0.8227947554334629,-0.11246353842170279,-0.8559517715830195,-0.3941185327414082,0.3660644496724703,0.3369699958167545,-0.9533537950631468,0.9183322531121939,0.7502438252730705,-0.401250928349711,0.08674301900699478,0.38959362919061535,-0.1260737862430104,0.37650288980496466,0.5535764906229724,0.6198912664196208,-0.9266856888174775,-0.10321029161258138,
-0.7571586657760614,0.534806998056932,0.8461482050648952,0.674226871997947,0.1799813144369705,-0.5625560757017918,-0.3613519548248084,-0.19891396148940457,0.7149602703701807,-0.9820682369042489,-0.697475934725692,-0.3465173374406374,-0.7394903516712488,0.5556383098503976,0.16566210352718275,-0.7126937285542696,0.638508263287088,0.2321824576430436,-0.4849443148779205,0.8328138466370754,-0.48097234836816105,0.810311130162881,0.5188467121748376,-0.9587753427947205,0.8449800156021895,0.819882664222689,0.7511553381376428,0.014352089523859508,0.8218704331080774,0.6990079257783594,0.5355179298779351,-0.7101014365275534,-0.8717718914019502,0.07342672827656382,0.5003717591487213,0.696477604399117,-0.3494449539862725,-0.2383258919778333,0.08911451217191899,-0.17358642730215798,0.9043647537574349,0.58926395803397,0.7628410438656539,-0.7681768990041004,-0.22145983713485176,0.11439111760140888,0.9477194339276591,0.9018970299375638,0.43217176996529816,0.1452725424388265,0.1561660515498805,0.781726360556943,0.33825703875838886,-0.14218665026200825,-0.09108390901658654,0.38711784301623925,0.25709550175398105,0.9914687872340555,0.5533058743816393,0.5751582475890052,0.8058658431838435,0.34575506124682187,0.1753250416346593,0.14347814439535653,-0.16615733821273762,-0.8749806303974611,-0.7917549631618984,0.3994724073909216,-0.2379751789285735,0.5004930158245826,0.8630470928695445,-0.7299590365664594,-0.9764561843314135,-0.21973281261629582,-0.04337542621997708,0.09396389408610463,-0.4373982666742538,0.3114079222510025,0.11418648816902274,0.5674249985923723,0.439670751142631,-0.43170138890044013,0.4942575484816569,0.6015062644571416,-0.9950114079042969,0.1270932225197261,0.7156047145221812,-0.7249768100643473,-0.6820543957740574,-0.37848011163865,0.8474409806420429,-0.4756970780030565,-0.9323533819594253,-0.408829142118618,0.5716741635023702,0.7304548039633946,-0.3447045546215277,0.2767661064421786,0.39563510413780756,0.9874790390102415,
0.8460197438057444,0.24330560881694285,0.25649928672385375,-0.5430525792416191,0.9121329056837978,-0.7207632582679011,-0.9388542788276281,-0.6088700054094235,-0.7176104307186046,-0.1414544465745383,0.8166416609018093,-0.9859838739783124,0.4488515785030903,0.32524070683406914,-0.005584198737320773,-0.22732817862552246,-0.18228176338790117,-0.4431432371469883,0.7710221896089338,0.5049296527526546,0.7803838284458585,0.5625490207316506,0.34402692186479594,-0.04809256530408948,-0.20602327742193696,0.09071465674025117,-0.827186600378189,-0.2723014193871826,0.8728628973362657,-0.03750780303866833,-0.6693251475514139,-0.5035478570219731,0.5579275612953473,-0.5785701128147255,-0.1507521893338797,0.09973186648426428,0.5312897137713709,-0.499876591226263,0.5721657909767442,0.21891080385779932,-0.07696807668228044,-0.14229537750619833,-0.5348797709490746,0.11983892519869585,0.41360163773655284,-0.651638726311817,0.11178269961295363,-0.18043859612834334,-0.7226322527121771,0.9139338830245368,0.7186459723766202,-0.3385526590397392,-0.07037124816991366,-0.9317599502997318,-0.24119375280362587,0.6564019237434616,0.16545575627794543,-0.7771791833616304,-0.7884226110699624,0.9485285403889324,0.3857434371364979,0.09921132093229512,-0.4867961238640498,0.22563645178320615,-0.30970536416509115,-0.5285283047744582,-0.3387559692356924,-0.8247711772989822,0.6139932815070163,-0.42177590496762846,0.6958445401854974,0.20219865750502047,0.5407887397371933,-0.1694420637751596,0.953852531484611,-0.11167561183191137,-0.5583088963671763,0.6483820242275664,-0.37862141627496965,-0.25437481098330383,0.0024600462968040106,-0.7523066342772995,-0.7115991309386984,-0.7964798041491612,-0.5961656903243527,-0.6592020127797591,-0.8542683569439794,0.8353416446732834,0.7018149909748518,0.9514018680121519,-0.7946627946559859,0.5238574886973554,0.8837359744436672,0.3762071838657751,0.7248756497991209,0.4654670717056061,0.3678661105259271,0.6882918425891261,-0.431987726945523,-0.7576320125290588,
0.11975901742252903,0.6202952997075706,0.7995672518839654,0.41564897867789763,0.683623719653481,0.8708944429900335,0.38104393339461595,0.03337886677304509,-0.7720422152095582,-0.25212557650846645,0.05669293158680553,0.16192702654597302,-0.6730408629851364,0.14577230977837602,1.0330972774458305,-0.9506988517777696,0.8830414758971312,-0.108802931161109,-0.27111687148170355,-0.7710391995394746,-0.2603965488947674,0.8875560515223275,0.7690290402181064,0.6974876683452966,0.5443498354022362,1.0567520634601026,0.4839804380627472,0.7876962283992409,0.8132637446013993,0.5548706571715994,-0.6217424355737043,0.36771422797267783,-0.0258228805997823,-0.3165864727697403,-0.49267143512857187,0.6921970099454928,-0.6635072192141342,0.9682041053232061,-0.9572480868523314,-0.10977362343710349,-0.027823047137967027,0.825494137221566,0.24127310086676187,-0.1050464148458727,0.20549172047118422,0.20576265062852842,0.5589686876689385,-0.2961356111185469,-0.8997804785662403,-0.003154574528943603,0.22478650548376994,-0.2030682957149774,0.6227263304746277,-0.04297539793176673,-0.976440132564868,-0.004293949303026481,-0.8285451811281827,-0.06662498196024484,0.8293372425519492,-0.07206076124569374,0.5798330585170568,0.5375567345665462,-0.7605391123875472,-0.5942946699728162,-0.6490991432357082,0.08822354370225759,-0.6285786852095104,-0.3237918526934114,0.08375444283239449,-0.8959808380486188,-0.9125123120025282,0.8168570075593105,0.7654195666488317,0.14576963702428802,0.5057500413703657,0.7549290597543536,0.6810404326847511,0.11387362523865614,-0.42954465979349155,-0.17307137708822162,0.3633355970327355,-0.24404042916387686,-0.31496143405532584,-0.18360222611051924,-0.7513617046626878,0.672622468377546,-0.5077821671978902,-0.06627404194113713,0.898061475349595,0.6825236893409405,-0.8937680901756657,-0.18611350084356879,0.2559488947054213,-0.5872271998211187,-0.8643791264331687,-0.19902773328696846,0.48784060635622156,0.31396615384243814,-0.21693613971643935,0.9346517141132372,
